<?xml version="1.0"?>
<opencv_storage>
<stage5>
  <maxWeakCount>5</maxWeakCount>
  <stageThreshold>-5.8404815196990967e-01</stageThreshold>
  <weakClassifiers>
    <_>
      <internalNodes>
        0 -1 728015 -1.2949865311384201e-02</internalNodes>
      <leafValues>
        -9.5907926559448242e-01 5.2702182531356812e-01</leafValues></_>
    <_>
      <internalNodes>
        0 -1 403659 1.1889508459717035e-03</internalNodes>
      <leafValues>
        -3.7436747550964355e-01 7.9089123010635376e-01</leafValues></_>
    <_>
      <internalNodes>
        0 -1 32639 4.5648386003449559e-04</internalNodes>
      <leafValues>
        -4.5128226280212402e-01 7.5918757915496826e-01</leafValues></_>
    <_>
      <internalNodes>
        0 -1 109551 -1.0234052024316043e-04</internalNodes>
      <leafValues>
        4.7557181119918823e-01 -6.1912620067596436e-01</leafValues></_>
    <_>
      <internalNodes>
        0 -1 475613 1.5524686314165592e-03</internalNodes>
      <leafValues>
        3.3370599150657654e-01 -9.5383781194686890e-01</leafValues></_></weakClassifiers></stage5>
</opencv_storage>
