<?xml version="1.0"?>
<opencv_storage>
<stage5>
  <maxWeakCount>5</maxWeakCount>
  <stageThreshold>-1.4064095020294189e+00</stageThreshold>
  <weakClassifiers>
    <_>
      <internalNodes>
        0 -1 397664 -1.4307269826531410e-02</internalNodes>
      <leafValues>
        6.1127597093582153e-01 -7.5823140144348145e-01</leafValues></_>
    <_>
      <internalNodes>
        0 -1 43393 -1.6496051102876663e-02</internalNodes>
      <leafValues>
        5.3937637805938721e-01 -7.5797361135482788e-01</leafValues></_>
    <_>
      <internalNodes>
        0 -1 214247 -1.0186040773987770e-02</internalNodes>
      <leafValues>
        6.3445734977722168e-01 -5.6467950344085693e-01</leafValues></_>
    <_>
      <internalNodes>
        0 -1 444052 4.2354734614491463e-03</internalNodes>
      <leafValues>
        3.3243468403816223e-01 -9.2364025115966797e-01</leafValues></_>
    <_>
      <internalNodes>
        0 -1 362590 4.2597259744070470e-04</internalNodes>
      <leafValues>
        -9.4075214862823486e-01 3.4204041957855225e-01</leafValues></_></weakClassifiers></stage5>
</opencv_storage>
