<?xml version="1.0"?>
<opencv_storage>
<stage10>
  <maxWeakCount>5</maxWeakCount>
  <stageThreshold>-1.2342315912246704e+00</stageThreshold>
  <weakClassifiers>
    <_>
      <internalNodes>
        0 -1 243949 -1.9993146415799856e-03</internalNodes>
      <leafValues>
        5.3724247217178345e-01 -7.0954358577728271e-01</leafValues></_>
    <_>
      <internalNodes>
        0 -1 293918 -6.4514212310314178e-02</internalNodes>
      <leafValues>
        6.5951722860336304e-01 -5.4248911142349243e-01</leafValues></_>
    <_>
      <internalNodes>
        0 -1 348784 3.9972424507141113e-02</internalNodes>
      <leafValues>
        3.6231088638305664e-01 -8.5606920719146729e-01</leafValues></_>
    <_>
      <internalNodes>
        0 -1 140012 -1.4339451678097248e-02</internalNodes>
      <leafValues>
        5.6456005573272705e-01 -4.7767898440361023e-01</leafValues></_>
    <_>
      <internalNodes>
        0 -1 1124 -1.8861528486013412e-02</internalNodes>
      <leafValues>
        -1. 3.0931031703948975e-01</leafValues></_></weakClassifiers></stage10>
</opencv_storage>
