<?xml version="1.0"?>
<opencv_storage>
<stage9>
  <maxWeakCount>5</maxWeakCount>
  <stageThreshold>-1.1107244491577148e+00</stageThreshold>
  <weakClassifiers>
    <_>
      <internalNodes>
        0 -1 429472 -8.2528125494718552e-03</internalNodes>
      <leafValues>
        3.6621454358100891e-01 -7.5263953208923340e-01</leafValues></_>
    <_>
      <internalNodes>
        0 -1 144295 -5.5751971900463104e-02</internalNodes>
      <leafValues>
        8.1040686368942261e-01 -4.7062915563583374e-01</leafValues></_>
    <_>
      <internalNodes>
        0 -1 263805 7.4213715270161629e-03</internalNodes>
      <leafValues>
        -4.0073758363723755e-01 7.2310364246368408e-01</leafValues></_>
    <_>
      <internalNodes>
        0 -1 256479 4.7930896282196045e-02</internalNodes>
      <leafValues>
        -9.2741775512695312e-01 3.5490605235099792e-01</leafValues></_>
    <_>
      <internalNodes>
        0 -1 32525 -3.1703782081604004e-01</internalNodes>
      <leafValues>
        -9.6546548604965210e-01 2.6254218816757202e-01</leafValues></_></weakClassifiers></stage9>
</opencv_storage>
