<?xml version="1.0"?>
<opencv_storage>
<stage14>
  <maxWeakCount>7</maxWeakCount>
  <stageThreshold>-1.5010050535202026e+00</stageThreshold>
  <weakClassifiers>
    <_>
      <internalNodes>
        0 -1 274729 -2.1686572581529617e-03</internalNodes>
      <leafValues>
        5.5633801221847534e-01 -6.7921149730682373e-01</leafValues></_>
    <_>
      <internalNodes>
        0 -1 295235 -9.2320069670677185e-03</internalNodes>
      <leafValues>
        -4.1894355416297913e-01 8.7841552495956421e-01</leafValues></_>
    <_>
      <internalNodes>
        0 -1 375587 -1.3107578270137310e-03</internalNodes>
      <leafValues>
        4.3705898523330688e-01 -6.4328908920288086e-01</leafValues></_>
    <_>
      <internalNodes>
        0 -1 350456 7.3741171509027481e-03</internalNodes>
      <leafValues>
        -7.4787062406539917e-01 3.3724167943000793e-01</leafValues></_>
    <_>
      <internalNodes>
        0 -1 393706 -7.2012068703770638e-03</internalNodes>
      <leafValues>
        -8.7782573699951172e-01 2.9198023676872253e-01</leafValues></_>
    <_>
      <internalNodes>
        0 -1 59028 6.8510174751281738e-03</internalNodes>
      <leafValues>
        -4.6622252464294434e-01 5.3801518678665161e-01</leafValues></_>
    <_>
      <internalNodes>
        0 -1 299573 4.8984274268150330e-02</internalNodes>
      <leafValues>
        2.4300792813301086e-01 -9.7560530900955200e-01</leafValues></_></weakClassifiers></stage14>
</opencv_storage>
