<?xml version="1.0"?>
<opencv_storage>
<cascade>
  <stageType>BOOST</stageType>
  <featureType>HAAR</featureType>
  <height>24</height>
  <width>33</width>
  <stageParams>
    <boostType>GAB</boostType>
    <minHitRate>9.9500000476837158e-01</minHitRate>
    <maxFalseAlarm>5.0000000000000000e-01</maxFalseAlarm>
    <weightTrimRate>9.4999999999999996e-01</weightTrimRate>
    <maxDepth>1</maxDepth>
    <maxWeakCount>100</maxWeakCount></stageParams>
  <featureParams>
    <maxCatCount>0</maxCatCount>
    <featSize>1</featSize>
    <mode>BASIC</mode></featureParams>
  <stageNum>6</stageNum>
  <stages>
    <!-- stage 0 -->
    <_>
      <maxWeakCount>2</maxWeakCount>
      <stageThreshold>-1.7610681056976318e-01</stageThreshold>
      <weakClassifiers>
        <_>
          <internalNodes>
            0 -1 9 2.3574657738208771e-02</internalNodes>
          <leafValues>
            -9.8990917205810547e-01 8.8034188747406006e-01</leafValues></_>
        <_>
          <internalNodes>
            0 -1 1 -4.5487809926271439e-02</internalNodes>
          <leafValues>
            8.1380236148834229e-01 -9.8312252759933472e-01</leafValues></_></weakClassifiers></_>
    <!-- stage 1 -->
    <_>
      <maxWeakCount>2</maxWeakCount>
      <stageThreshold>-1.8572807312011719e-01</stageThreshold>
      <weakClassifiers>
        <_>
          <internalNodes>
            0 -1 5 -2.1228510886430740e-02</internalNodes>
          <leafValues>
            7.3333334922790527e-01 -9.6548223495483398e-01</leafValues></_>
        <_>
          <internalNodes>
            0 -1 7 1.1450673453509808e-02</internalNodes>
          <leafValues>
            -9.1906142234802246e-01 8.7334996461868286e-01</leafValues></_></weakClassifiers></_>
    <!-- stage 2 -->
    <_>
      <maxWeakCount>2</maxWeakCount>
      <stageThreshold>-1.1654138565063477e-01</stageThreshold>
      <weakClassifiers>
        <_>
          <internalNodes>
            0 -1 2 7.2868928313255310e-02</internalNodes>
          <leafValues>
            -9.4669300317764282e-01 8.6792451143264771e-01</leafValues></_>
        <_>
          <internalNodes>
            0 -1 8 1.5592262148857117e-02</internalNodes>
          <leafValues>
            -9.4892895221710205e-01 8.3015161752700806e-01</leafValues></_></weakClassifiers></_>
    <!-- stage 3 -->
    <_>
      <maxWeakCount>2</maxWeakCount>
      <stageThreshold>-2.9450181126594543e-01</stageThreshold>
      <weakClassifiers>
        <_>
          <internalNodes>
            0 -1 10 5.0687477923929691e-03</internalNodes>
          <leafValues>
            -9.7322350740432739e-01 6.6929131746292114e-01</leafValues></_>
        <_>
          <internalNodes>
            0 -1 4 -5.7897856459021568e-03</internalNodes>
          <leafValues>
            7.1208590269088745e-01 -9.6379315853118896e-01</leafValues></_></weakClassifiers></_>
    <!-- stage 4 -->
    <_>
      <maxWeakCount>2</maxWeakCount>
      <stageThreshold>-4.8625233769416809e-01</stageThreshold>
      <weakClassifiers>
        <_>
          <internalNodes>
            0 -1 6 2.1710943430662155e-02</internalNodes>
          <leafValues>
            -9.6606576442718506e-01 4.8226949572563171e-01</leafValues></_>
        <_>
          <internalNodes>
            0 -1 0 2.1438146010041237e-02</internalNodes>
          <leafValues>
            -9.6852183341979980e-01 5.5995547771453857e-01</leafValues></_></weakClassifiers></_>
    <!-- stage 5 -->
    <_>
      <maxWeakCount>2</maxWeakCount>
      <stageThreshold>-4.0074670314788818e-01</stageThreshold>
      <weakClassifiers>
        <_>
          <internalNodes>
            0 -1 11 -6.1581162735819817e-03</internalNodes>
          <leafValues>
            6.0833334922790527e-01 -9.3502539396286011e-01</leafValues></_>
        <_>
          <internalNodes>
            0 -1 3 8.4268257021903992e-02</internalNodes>
          <leafValues>
            -9.8399674892425537e-01 5.3427869081497192e-01</leafValues></_></weakClassifiers></_></stages>
  <features>
    <_>
      <rects>
        <_>
          0 5 6 4 -1.</_>
        <_>
          3 5 3 4 2.</_></rects>
      <tilted>0</tilted></_>
    <_>
      <rects>
        <_>
          0 12 8 12 -1.</_>
        <_>
          0 12 4 6 2.</_>
        <_>
          4 18 4 6 2.</_></rects>
      <tilted>0</tilted></_>
    <_>
      <rects>
        <_>
          1 6 6 11 -1.</_>
        <_>
          4 6 3 11 2.</_></rects>
      <tilted>0</tilted></_>
    <_>
      <rects>
        <_>
          3 8 30 12 -1.</_>
        <_>
          3 8 15 6 2.</_>
        <_>
          18 14 15 6 2.</_></rects>
      <tilted>0</tilted></_>
    <_>
      <rects>
        <_>
          8 9 2 4 -1.</_>
        <_>
          8 11 2 2 2.</_></rects>
      <tilted>0</tilted></_>
    <_>
      <rects>
        <_>
          11 4 4 12 -1.</_>
        <_>
          11 4 2 6 2.</_>
        <_>
          13 10 2 6 2.</_></rects>
      <tilted>0</tilted></_>
    <_>
      <rects>
        <_>
          11 7 12 4 -1.</_>
        <_>
          11 9 12 2 2.</_></rects>
      <tilted>0</tilted></_>
    <_>
      <rects>
        <_>
          17 21 13 2 -1.</_>
        <_>
          17 22 13 1 2.</_></rects>
      <tilted>0</tilted></_>
    <_>
      <rects>
        <_>
          19 8 4 8 -1.</_>
        <_>
          19 8 2 4 2.</_>
        <_>
          21 12 2 4 2.</_></rects>
      <tilted>0</tilted></_>
    <_>
      <rects>
        <_>
          23 8 6 8 -1.</_>
        <_>
          23 8 3 4 2.</_>
        <_>
          26 12 3 4 2.</_></rects>
      <tilted>0</tilted></_>
    <_>
      <rects>
        <_>
          23 13 4 1 -1.</_>
        <_>
          25 13 2 1 2.</_></rects>
      <tilted>0</tilted></_>
    <_>
      <rects>
        <_>
          23 14 2 3 -1.</_>
        <_>
          24 14 1 3 2.</_></rects>
      <tilted>0</tilted></_></features></cascade>
</opencv_storage>
