<?xml version="1.0"?>
<opencv_storage>
<cascade>
  <stageType>BOOST</stageType>
  <featureType>HAAR</featureType>
  <height>24</height>
  <width>38</width>
  <stageParams>
    <boostType>GAB</boostType>
    <minHitRate>9.9500000476837158e-01</minHitRate>
    <maxFalseAlarm>5.0000000000000000e-01</maxFalseAlarm>
    <weightTrimRate>9.4999999999999996e-01</weightTrimRate>
    <maxDepth>1</maxDepth>
    <maxWeakCount>100</maxWeakCount></stageParams>
  <featureParams>
    <maxCatCount>0</maxCatCount>
    <featSize>1</featSize>
    <mode>BASIC</mode></featureParams>
  <stageNum>17</stageNum>
  <stages>
    <!-- stage 0 -->
    <_>
      <maxWeakCount>2</maxWeakCount>
      <stageThreshold>-1.8116611242294312e-01</stageThreshold>
      <weakClassifiers>
        <_>
          <internalNodes>
            0 -1 13 -3.3610007166862488e-01</internalNodes>
          <leafValues>
            8.2962960004806519e-01 -9.4285714626312256e-01</leafValues></_>
        <_>
          <internalNodes>
            0 -1 4 -9.0851075947284698e-02</internalNodes>
          <leafValues>
            7.6169103384017944e-01 -5.8860039710998535e-01</leafValues></_></weakClassifiers></_>
    <!-- stage 1 -->
    <_>
      <maxWeakCount>1</maxWeakCount>
      <stageThreshold>6.4303380250930786e-01</stageThreshold>
      <weakClassifiers>
        <_>
          <internalNodes>
            0 -1 53 -1.4847356826066971e-02</internalNodes>
          <leafValues>
            -9.7560977935791016e-01 6.4303380250930786e-01</leafValues></_></weakClassifiers></_>
    <!-- stage 2 -->
    <_>
      <maxWeakCount>2</maxWeakCount>
      <stageThreshold>1.6144561767578125e-01</stageThreshold>
      <weakClassifiers>
        <_>
          <internalNodes>
            0 -1 5 3.6459020338952541e-03</internalNodes>
          <leafValues>
            -5.3802281618118286e-01 8.0390143394470215e-01</leafValues></_>
        <_>
          <internalNodes>
            0 -1 21 2.5403418112546206e-04</internalNodes>
          <leafValues>
            -5.0867563486099243e-01 6.9946843385696411e-01</leafValues></_></weakClassifiers></_>
    <!-- stage 3 -->
    <_>
      <maxWeakCount>3</maxWeakCount>
      <stageThreshold>-6.7272022366523743e-02</stageThreshold>
      <weakClassifiers>
        <_>
          <internalNodes>
            0 -1 8 -1.9162272801622748e-03</internalNodes>
          <leafValues>
            -2.4734693765640259e-01 7.3408448696136475e-01</leafValues></_>
        <_>
          <internalNodes>
            0 -1 31 3.8354340940713882e-03</internalNodes>
          <leafValues>
            -3.7604027986526489e-01 7.2638529539108276e-01</leafValues></_>
        <_>
          <internalNodes>
            0 -1 45 1.3827737420797348e-03</internalNodes>
          <leafValues>
            -4.2531624436378479e-01 7.1636480093002319e-01</leafValues></_></weakClassifiers></_>
    <!-- stage 4 -->
    <_>
      <maxWeakCount>4</maxWeakCount>
      <stageThreshold>-1.7535711231175810e-04</stageThreshold>
      <weakClassifiers>
        <_>
          <internalNodes>
            0 -1 27 -2.2430020570755005e-01</internalNodes>
          <leafValues>
            5.4643285274505615e-01 -7.5560081005096436e-01</leafValues></_>
        <_>
          <internalNodes>
            0 -1 64 4.9405591562390327e-04</internalNodes>
          <leafValues>
            -3.5910663008689880e-01 7.6455807685852051e-01</leafValues></_>
        <_>
          <internalNodes>
            0 -1 6 3.4788472112268209e-04</internalNodes>
          <leafValues>
            -4.8811665177345276e-01 7.0102143287658691e-01</leafValues></_>
        <_>
          <internalNodes>
            0 -1 57 -2.1283035166561604e-03</internalNodes>
          <leafValues>
            -5.8586150407791138e-01 4.7898402810096741e-01</leafValues></_></weakClassifiers></_>
    <!-- stage 5 -->
    <_>
      <maxWeakCount>4</maxWeakCount>
      <stageThreshold>-4.9813666939735413e-01</stageThreshold>
      <weakClassifiers>
        <_>
          <internalNodes>
            0 -1 35 -1.1004866100847721e-03</internalNodes>
          <leafValues>
            7.4002575874328613e-01 -1.0373444110155106e-01</leafValues></_>
        <_>
          <internalNodes>
            0 -1 17 -2.1195363253355026e-02</internalNodes>
          <leafValues>
            6.7023849487304688e-01 -3.6657407879829407e-01</leafValues></_>
        <_>
          <internalNodes>
            0 -1 61 -3.4262554254382849e-04</internalNodes>
          <leafValues>
            4.8731786012649536e-01 -4.9461406469345093e-01</leafValues></_>
        <_>
          <internalNodes>
            0 -1 66 1.7684267368167639e-03</internalNodes>
          <leafValues>
            -5.1514601707458496e-01 6.3518208265304565e-01</leafValues></_></weakClassifiers></_>
    <!-- stage 6 -->
    <_>
      <maxWeakCount>4</maxWeakCount>
      <stageThreshold>-3.6091738939285278e-01</stageThreshold>
      <weakClassifiers>
        <_>
          <internalNodes>
            0 -1 35 -1.0686113964766264e-03</internalNodes>
          <leafValues>
            7.4309569597244263e-01 -1.0880111157894135e-01</leafValues></_>
        <_>
          <internalNodes>
            0 -1 62 4.0729291504248977e-04</internalNodes>
          <leafValues>
            -3.4720259904861450e-01 6.0482525825500488e-01</leafValues></_>
        <_>
          <internalNodes>
            0 -1 38 6.6236924612894654e-04</internalNodes>
          <leafValues>
            -3.3023670315742493e-01 7.0008277893066406e-01</leafValues></_>
        <_>
          <internalNodes>
            0 -1 11 -8.9661485981196165e-04</internalNodes>
          <leafValues>
            5.7102644443511963e-01 -5.2670484781265259e-01</leafValues></_></weakClassifiers></_>
    <!-- stage 7 -->
    <_>
      <maxWeakCount>5</maxWeakCount>
      <stageThreshold>-5.5190360546112061e-01</stageThreshold>
      <weakClassifiers>
        <_>
          <internalNodes>
            0 -1 52 8.4845128003507853e-04</internalNodes>
          <leafValues>
            4.7274750471115112e-01 -9.0759074687957764e-01</leafValues></_>
        <_>
          <internalNodes>
            0 -1 35 -9.9788885563611984e-04</internalNodes>
          <leafValues>
            5.7116109132766724e-01 -3.8341844081878662e-01</leafValues></_>
        <_>
          <internalNodes>
            0 -1 39 -3.0141723982524127e-05</internalNodes>
          <leafValues>
            -6.5722519159317017e-01 3.5209986567497253e-01</leafValues></_>
        <_>
          <internalNodes>
            0 -1 50 -1.4506636653095484e-03</internalNodes>
          <leafValues>
            3.7017253041267395e-01 -5.5072265863418579e-01</leafValues></_>
        <_>
          <internalNodes>
            0 -1 14 1.5917931450530887e-03</internalNodes>
          <leafValues>
            -3.6680278182029724e-01 5.6671518087387085e-01</leafValues></_></weakClassifiers></_>
    <!-- stage 8 -->
    <_>
      <maxWeakCount>4</maxWeakCount>
      <stageThreshold>-1.2085374444723129e-01</stageThreshold>
      <weakClassifiers>
        <_>
          <internalNodes>
            0 -1 7 3.2193271181313321e-05</internalNodes>
          <leafValues>
            -5.6650245189666748e-01 5.6252616643905640e-01</leafValues></_>
        <_>
          <internalNodes>
            0 -1 51 9.3284594186116010e-05</internalNodes>
          <leafValues>
            -4.4378134608268738e-01 5.1717531681060791e-01</leafValues></_>
        <_>
          <internalNodes>
            0 -1 36 -8.3181934314779937e-05</internalNodes>
          <leafValues>
            3.7368026375770569e-01 -6.0282331705093384e-01</leafValues></_>
        <_>
          <internalNodes>
            0 -1 3 -1.8263562023639679e-01</internalNodes>
          <leafValues>
            5.3129667043685913e-01 -4.2889782786369324e-01</leafValues></_></weakClassifiers></_>
    <!-- stage 9 -->
    <_>
      <maxWeakCount>5</maxWeakCount>
      <stageThreshold>-2.2904428839683533e-01</stageThreshold>
      <weakClassifiers>
        <_>
          <internalNodes>
            0 -1 18 2.2216387151274830e-04</internalNodes>
          <leafValues>
            4.9806350469589233e-01 -6.8421053886413574e-01</leafValues></_>
        <_>
          <internalNodes>
            0 -1 46 -3.3240977209061384e-03</internalNodes>
          <leafValues>
            6.7653673887252808e-01 -3.2098910212516785e-01</leafValues></_>
        <_>
          <internalNodes>
            0 -1 32 2.3527410812675953e-03</internalNodes>
          <leafValues>
            -4.5281785726547241e-01 5.3492778539657593e-01</leafValues></_>
        <_>
          <internalNodes>
            0 -1 9 6.7453561350703239e-03</internalNodes>
          <leafValues>
            -3.5056990385055542e-01 5.9793651103973389e-01</leafValues></_>
        <_>
          <internalNodes>
            0 -1 37 -4.1835679439827800e-04</internalNodes>
          <leafValues>
            5.9179747104644775e-01 -3.7747880816459656e-01</leafValues></_></weakClassifiers></_>
    <!-- stage 10 -->
    <_>
      <maxWeakCount>5</maxWeakCount>
      <stageThreshold>-3.2345759868621826e-01</stageThreshold>
      <weakClassifiers>
        <_>
          <internalNodes>
            0 -1 65 2.2202888794708997e-04</internalNodes>
          <leafValues>
            4.7313821315765381e-01 -9.2026579380035400e-01</leafValues></_>
        <_>
          <internalNodes>
            0 -1 15 -1.9319824059493840e-04</internalNodes>
          <leafValues>
            -5.6321752071380615e-01 3.5842749476432800e-01</leafValues></_>
        <_>
          <internalNodes>
            0 -1 68 1.0594862978905439e-03</internalNodes>
          <leafValues>
            -3.8572230935096741e-01 5.8546108007431030e-01</leafValues></_>
        <_>
          <internalNodes>
            0 -1 1 1.5187194803729653e-03</internalNodes>
          <leafValues>
            -5.4550546407699585e-01 3.9402458071708679e-01</leafValues></_>
        <_>
          <internalNodes>
            0 -1 34 -9.5094801508821547e-05</internalNodes>
          <leafValues>
            -9.0583759546279907e-01 2.3007842898368835e-01</leafValues></_></weakClassifiers></_>
    <!-- stage 11 -->
    <_>
      <maxWeakCount>6</maxWeakCount>
      <stageThreshold>-7.2814220190048218e-01</stageThreshold>
      <weakClassifiers>
        <_>
          <internalNodes>
            0 -1 71 2.7378907543607056e-04</internalNodes>
          <leafValues>
            4.6167948842048645e-01 -9.4871795177459717e-01</leafValues></_>
        <_>
          <internalNodes>
            0 -1 49 -3.2787760719656944e-03</internalNodes>
          <leafValues>
            4.6202796697616577e-01 -3.6541488766670227e-01</leafValues></_>
        <_>
          <internalNodes>
            0 -1 43 -1.3935232709627599e-04</internalNodes>
          <leafValues>
            -7.1596765518188477e-01 2.1711139380931854e-01</leafValues></_>
        <_>
          <internalNodes>
            0 -1 41 -4.7482358058914542e-04</internalNodes>
          <leafValues>
            4.0061643719673157e-01 -4.3568161129951477e-01</leafValues></_>
        <_>
          <internalNodes>
            0 -1 44 -1.0610490571707487e-03</internalNodes>
          <leafValues>
            5.8173334598541260e-01 -3.8598898053169250e-01</leafValues></_>
        <_>
          <internalNodes>
            0 -1 24 -5.4856785573065281e-04</internalNodes>
          <leafValues>
            -2.5449091196060181e-01 7.6847946643829346e-01</leafValues></_></weakClassifiers></_>
    <!-- stage 12 -->
    <_>
      <maxWeakCount>6</maxWeakCount>
      <stageThreshold>-3.4645628929138184e-01</stageThreshold>
      <weakClassifiers>
        <_>
          <internalNodes>
            0 -1 16 4.0217029163613915e-04</internalNodes>
          <leafValues>
            4.7734138369560242e-01 -7.5000000000000000e-01</leafValues></_>
        <_>
          <internalNodes>
            0 -1 2 2.3582188878208399e-03</internalNodes>
          <leafValues>
            -4.0831390023231506e-01 4.2019981145858765e-01</leafValues></_>
        <_>
          <internalNodes>
            0 -1 56 -1.8032127991318703e-03</internalNodes>
          <leafValues>
            6.4230626821517944e-01 -2.9309061169624329e-01</leafValues></_>
        <_>
          <internalNodes>
            0 -1 54 9.0202083811163902e-06</internalNodes>
          <leafValues>
            -6.0606759786605835e-01 3.3752393722534180e-01</leafValues></_>
        <_>
          <internalNodes>
            0 -1 12 -9.0202083811163902e-06</internalNodes>
          <leafValues>
            3.3308133482933044e-01 -5.4794180393218994e-01</leafValues></_>
        <_>
          <internalNodes>
            0 -1 25 -1.9123505335301161e-03</internalNodes>
          <leafValues>
            7.0302522182464600e-01 -3.9417073130607605e-01</leafValues></_></weakClassifiers></_>
    <!-- stage 13 -->
    <_>
      <maxWeakCount>6</maxWeakCount>
      <stageThreshold>-1.6395416855812073e-01</stageThreshold>
      <weakClassifiers>
        <_>
          <internalNodes>
            0 -1 48 2.2423558402806520e-04</internalNodes>
          <leafValues>
            5.1944893598556519e-01 -5.3007519245147705e-01</leafValues></_>
        <_>
          <internalNodes>
            0 -1 47 -6.0007223510183394e-05</internalNodes>
          <leafValues>
            -6.0836708545684814e-01 3.6309859156608582e-01</leafValues></_>
        <_>
          <internalNodes>
            0 -1 42 2.7397044468671083e-03</internalNodes>
          <leafValues>
            -3.4294602274894714e-01 6.2210536003112793e-01</leafValues></_>
        <_>
          <internalNodes>
            0 -1 28 -5.3934767493046820e-05</internalNodes>
          <leafValues>
            -6.9620072841644287e-01 2.7856796979904175e-01</leafValues></_>
        <_>
          <internalNodes>
            0 -1 59 -4.6666529960930347e-03</internalNodes>
          <leafValues>
            9.0662199258804321e-01 -2.0999950170516968e-01</leafValues></_>
        <_>
          <internalNodes>
            0 -1 0 -1.0621184628689662e-04</internalNodes>
          <leafValues>
            2.8381428122520447e-01 -7.3236221075057983e-01</leafValues></_></weakClassifiers></_>
    <!-- stage 14 -->
    <_>
      <maxWeakCount>5</maxWeakCount>
      <stageThreshold>-1.6308151185512543e-01</stageThreshold>
      <weakClassifiers>
        <_>
          <internalNodes>
            0 -1 33 -1.4694611309096217e-04</internalNodes>
          <leafValues>
            -5.6275302171707153e-01 5.0997602939605713e-01</leafValues></_>
        <_>
          <internalNodes>
            0 -1 40 8.4940448869019747e-04</internalNodes>
          <leafValues>
            -2.6219710707664490e-01 6.1533319950103760e-01</leafValues></_>
        <_>
          <internalNodes>
            0 -1 10 -1.2097418308258057e-01</internalNodes>
          <leafValues>
            2.9018360376358032e-01 -6.5342384576797485e-01</leafValues></_>
        <_>
          <internalNodes>
            0 -1 30 3.0918738339096308e-03</internalNodes>
          <leafValues>
            -2.6035675406455994e-01 6.4318829774856567e-01</leafValues></_>
        <_>
          <internalNodes>
            0 -1 70 2.6620971038937569e-03</internalNodes>
          <leafValues>
            -2.4548852443695068e-01 7.1907496452331543e-01</leafValues></_></weakClassifiers></_>
    <!-- stage 15 -->
    <_>
      <maxWeakCount>6</maxWeakCount>
      <stageThreshold>-4.8572003841400146e-01</stageThreshold>
      <weakClassifiers>
        <_>
          <internalNodes>
            0 -1 19 3.3410568721592426e-04</internalNodes>
          <leafValues>
            4.5228520035743713e-01 -8.9433962106704712e-01</leafValues></_>
        <_>
          <internalNodes>
            0 -1 26 -2.1297919750213623e-01</internalNodes>
          <leafValues>
            2.4986045062541962e-01 -7.2778707742691040e-01</leafValues></_>
        <_>
          <internalNodes>
            0 -1 23 -4.5893229544162750e-02</internalNodes>
          <leafValues>
            6.3814586400985718e-01 -2.8343924880027771e-01</leafValues></_>
        <_>
          <internalNodes>
            0 -1 55 1.7904426204040647e-04</internalNodes>
          <leafValues>
            -4.8593103885650635e-01 4.2575660347938538e-01</leafValues></_>
        <_>
          <internalNodes>
            0 -1 22 -1.6140667721629143e-03</internalNodes>
          <leafValues>
            5.3604650497436523e-01 -3.0266967415809631e-01</leafValues></_>
        <_>
          <internalNodes>
            0 -1 67 -2.0474896300584078e-03</internalNodes>
          <leafValues>
            -5.2950221300125122e-01 3.0205750465393066e-01</leafValues></_></weakClassifiers></_>
    <!-- stage 16 -->
    <_>
      <maxWeakCount>6</maxWeakCount>
      <stageThreshold>-2.9140421748161316e-01</stageThreshold>
      <weakClassifiers>
        <_>
          <internalNodes>
            0 -1 58 -2.3825822863727808e-03</internalNodes>
          <leafValues>
            4.5335277915000916e-01 -9.5312500000000000e-01</leafValues></_>
        <_>
          <internalNodes>
            0 -1 69 -3.6938441917300224e-03</internalNodes>
          <leafValues>
            -5.2595365047454834e-01 3.3074742555618286e-01</leafValues></_>
        <_>
          <internalNodes>
            0 -1 60 5.3533241152763367e-03</internalNodes>
          <leafValues>
            -2.9808545112609863e-01 6.4680093526840210e-01</leafValues></_>
        <_>
          <internalNodes>
            0 -1 63 -1.7228720244020224e-03</internalNodes>
          <leafValues>
            4.3644380569458008e-01 -3.7904495000839233e-01</leafValues></_>
        <_>
          <internalNodes>
            0 -1 29 1.2906514108181000e-02</internalNodes>
          <leafValues>
            2.0610570907592773e-01 -7.4930095672607422e-01</leafValues></_>
        <_>
          <internalNodes>
            0 -1 20 -2.7187616797164083e-04</internalNodes>
          <leafValues>
            3.5092693567276001e-01 -4.2867022752761841e-01</leafValues></_></weakClassifiers></_></stages>
  <features>
    <_>
      <rects>
        <_>
          0 0 1 6 -1.</_>
        <_>
          0 3 1 3 2.</_></rects>
      <tilted>0</tilted></_>
    <_>
      <rects>
        <_>
          0 0 12 1 -1.</_>
        <_>
          6 0 6 1 2.</_></rects>
      <tilted>0</tilted></_>
    <_>
      <rects>
        <_>
          0 0 25 2 -1.</_>
        <_>
          0 1 25 1 2.</_></rects>
      <tilted>0</tilted></_>
    <_>
      <rects>
        <_>
          0 10 38 14 -1.</_>
        <_>
          0 17 38 7 2.</_></rects>
      <tilted>0</tilted></_>
    <_>
      <rects>
        <_>
          0 12 38 12 -1.</_>
        <_>
          0 18 38 6 2.</_></rects>
      <tilted>0</tilted></_>
    <_>
      <rects>
        <_>
          0 19 6 5 -1.</_>
        <_>
          3 19 3 5 2.</_></rects>
      <tilted>0</tilted></_>
    <_>
      <rects>
        <_>
          0 20 2 2 -1.</_>
        <_>
          0 20 1 1 2.</_>
        <_>
          1 21 1 1 2.</_></rects>
      <tilted>0</tilted></_>
    <_>
      <rects>
        <_>
          0 22 4 1 -1.</_>
        <_>
          2 22 2 1 2.</_></rects>
      <tilted>0</tilted></_>
    <_>
      <rects>
        <_>
          0 23 3 1 -1.</_>
        <_>
          1 23 1 1 2.</_></rects>
      <tilted>0</tilted></_>
    <_>
      <rects>
        <_>
          0 23 16 1 -1.</_>
        <_>
          8 23 8 1 2.</_></rects>
      <tilted>0</tilted></_>
    <_>
      <rects>
        <_>
          1 0 37 24 -1.</_>
        <_>
          1 12 37 12 2.</_></rects>
      <tilted>0</tilted></_>
    <_>
      <rects>
        <_>
          1 1 1 4 -1.</_>
        <_>
          1 3 1 2 2.</_></rects>
      <tilted>0</tilted></_>
    <_>
      <rects>
        <_>
          1 2 4 1 -1.</_>
        <_>
          3 2 2 1 2.</_></rects>
      <tilted>0</tilted></_>
    <_>
      <rects>
        <_>
          1 2 30 12 -1.</_>
        <_>
          1 6 30 4 2.</_></rects>
      <tilted>0</tilted></_>
    <_>
      <rects>
        <_>
          1 3 2 2 -1.</_>
        <_>
          1 4 2 1 2.</_></rects>
      <tilted>0</tilted></_>
    <_>
      <rects>
        <_>
          1 18 2 2 -1.</_>
        <_>
          1 19 2 1 2.</_></rects>
      <tilted>0</tilted></_>
    <_>
      <rects>
        <_>
          1 19 2 2 -1.</_>
        <_>
          1 20 2 1 2.</_></rects>
      <tilted>0</tilted></_>
    <_>
      <rects>
        <_>
          1 20 26 4 -1.</_>
        <_>
          1 22 26 2 2.</_></rects>
      <tilted>0</tilted></_>
    <_>
      <rects>
        <_>
          1 21 3 2 -1.</_>
        <_>
          1 22 3 1 2.</_></rects>
      <tilted>0</tilted></_>
    <_>
      <rects>
        <_>
          1 22 1 2 -1.</_>
        <_>
          1 23 1 1 2.</_></rects>
      <tilted>0</tilted></_>
    <_>
      <rects>
        <_>
          2 0 2 6 -1.</_>
        <_>
          2 0 1 3 2.</_>
        <_>
          3 3 1 3 2.</_></rects>
      <tilted>0</tilted></_>
    <_>
      <rects>
        <_>
          2 3 1 2 -1.</_>
        <_>
          2 4 1 1 2.</_></rects>
      <tilted>0</tilted></_>
    <_>
      <rects>
        <_>
          2 4 2 2 -1.</_>
        <_>
          2 5 2 1 2.</_></rects>
      <tilted>0</tilted></_>
    <_>
      <rects>
        <_>
          2 16 24 8 -1.</_>
        <_>
          2 16 12 4 2.</_>
        <_>
          14 20 12 4 2.</_></rects>
      <tilted>0</tilted></_>
    <_>
      <rects>
        <_>
          2 22 3 1 -1.</_>
        <_>
          3 22 1 1 2.</_></rects>
      <tilted>0</tilted></_>
    <_>
      <rects>
        <_>
          5 20 4 1 -1.</_>
        <_>
          7 20 2 1 2.</_></rects>
      <tilted>0</tilted></_>
    <_>
      <rects>
        <_>
          7 1 15 13 -1.</_>
        <_>
          12 1 5 13 2.</_></rects>
      <tilted>0</tilted></_>
    <_>
      <rects>
        <_>
          9 0 24 9 -1.</_>
        <_>
          9 3 24 3 2.</_></rects>
      <tilted>0</tilted></_>
    <_>
      <rects>
        <_>
          10 0 2 1 -1.</_>
        <_>
          11 0 1 1 2.</_></rects>
      <tilted>0</tilted></_>
    <_>
      <rects>
        <_>
          11 7 14 5 -1.</_>
        <_>
          18 7 7 5 2.</_></rects>
      <tilted>0</tilted></_>
    <_>
      <rects>
        <_>
          11 21 8 2 -1.</_>
        <_>
          11 21 4 1 2.</_>
        <_>
          15 22 4 1 2.</_></rects>
      <tilted>0</tilted></_>
    <_>
      <rects>
        <_>
          14 22 16 2 -1.</_>
        <_>
          14 22 8 1 2.</_>
        <_>
          22 23 8 1 2.</_></rects>
      <tilted>0</tilted></_>
    <_>
      <rects>
        <_>
          14 23 16 1 -1.</_>
        <_>
          22 23 8 1 2.</_></rects>
      <tilted>0</tilted></_>
    <_>
      <rects>
        <_>
          16 0 2 1 -1.</_>
        <_>
          17 0 1 1 2.</_></rects>
      <tilted>0</tilted></_>
    <_>
      <rects>
        <_>
          20 0 2 1 -1.</_>
        <_>
          21 0 1 1 2.</_></rects>
      <tilted>0</tilted></_>
    <_>
      <rects>
        <_>
          20 0 4 1 -1.</_>
        <_>
          22 0 2 1 2.</_></rects>
      <tilted>0</tilted></_>
    <_>
      <rects>
        <_>
          22 0 2 1 -1.</_>
        <_>
          23 0 1 1 2.</_></rects>
      <tilted>0</tilted></_>
    <_>
      <rects>
        <_>
          22 22 2 1 -1.</_>
        <_>
          23 22 1 1 2.</_></rects>
      <tilted>0</tilted></_>
    <_>
      <rects>
        <_>
          28 20 2 2 -1.</_>
        <_>
          28 20 1 1 2.</_>
        <_>
          29 21 1 1 2.</_></rects>
      <tilted>0</tilted></_>
    <_>
      <rects>
        <_>
          28 22 4 2 -1.</_>
        <_>
          30 22 2 2 2.</_></rects>
      <tilted>0</tilted></_>
    <_>
      <rects>
        <_>
          29 0 2 1 -1.</_>
        <_>
          30 0 1 1 2.</_></rects>
      <tilted>0</tilted></_>
    <_>
      <rects>
        <_>
          30 0 4 1 -1.</_>
        <_>
          32 0 2 1 2.</_></rects>
      <tilted>0</tilted></_>
    <_>
      <rects>
        <_>
          30 17 8 2 -1.</_>
        <_>
          30 17 4 1 2.</_>
        <_>
          34 18 4 1 2.</_></rects>
      <tilted>0</tilted></_>
    <_>
      <rects>
        <_>
          31 0 2 1 -1.</_>
        <_>
          32 0 1 1 2.</_></rects>
      <tilted>0</tilted></_>
    <_>
      <rects>
        <_>
          31 19 2 2 -1.</_>
        <_>
          32 19 1 2 2.</_></rects>
      <tilted>0</tilted></_>
    <_>
      <rects>
        <_>
          32 0 2 4 -1.</_>
        <_>
          32 0 1 2 2.</_>
        <_>
          33 2 1 2 2.</_></rects>
      <tilted>0</tilted></_>
    <_>
      <rects>
        <_>
          32 16 6 2 -1.</_>
        <_>
          32 17 6 1 2.</_></rects>
      <tilted>0</tilted></_>
    <_>
      <rects>
        <_>
          33 0 2 3 -1.</_>
        <_>
          34 0 1 3 2.</_></rects>
      <tilted>0</tilted></_>
    <_>
      <rects>
        <_>
          33 2 2 2 -1.</_>
        <_>
          34 2 1 2 2.</_></rects>
      <tilted>0</tilted></_>
    <_>
      <rects>
        <_>
          33 17 4 5 -1.</_>
        <_>
          35 17 2 5 2.</_></rects>
      <tilted>0</tilted></_>
    <_>
      <rects>
        <_>
          34 1 4 10 -1.</_>
        <_>
          34 1 2 5 2.</_>
        <_>
          36 6 2 5 2.</_></rects>
      <tilted>0</tilted></_>
    <_>
      <rects>
        <_>
          34 21 2 2 -1.</_>
        <_>
          34 22 2 1 2.</_></rects>
      <tilted>0</tilted></_>
    <_>
      <rects>
        <_>
          34 21 3 2 -1.</_>
        <_>
          34 22 3 1 2.</_></rects>
      <tilted>0</tilted></_>
    <_>
      <rects>
        <_>
          34 21 4 3 -1.</_>
        <_>
          34 22 4 1 2.</_></rects>
      <tilted>0</tilted></_>
    <_>
      <rects>
        <_>
          34 22 2 2 -1.</_>
        <_>
          34 22 1 1 2.</_>
        <_>
          35 23 1 1 2.</_></rects>
      <tilted>0</tilted></_>
    <_>
      <rects>
        <_>
          35 3 2 1 -1.</_>
        <_>
          36 3 1 1 2.</_></rects>
      <tilted>0</tilted></_>
    <_>
      <rects>
        <_>
          35 4 2 2 -1.</_>
        <_>
          35 5 2 1 2.</_></rects>
      <tilted>0</tilted></_>
    <_>
      <rects>
        <_>
          35 21 3 1 -1.</_>
        <_>
          36 21 1 1 2.</_></rects>
      <tilted>0</tilted></_>
    <_>
      <rects>
        <_>
          35 21 3 2 -1.</_>
        <_>
          36 21 1 2 2.</_></rects>
      <tilted>0</tilted></_>
    <_>
      <rects>
        <_>
          36 0 2 2 -1.</_>
        <_>
          37 0 1 2 2.</_></rects>
      <tilted>0</tilted></_>
    <_>
      <rects>
        <_>
          36 0 2 8 -1.</_>
        <_>
          36 0 1 4 2.</_>
        <_>
          37 4 1 4 2.</_></rects>
      <tilted>0</tilted></_>
    <_>
      <rects>
        <_>
          36 1 2 2 -1.</_>
        <_>
          36 2 2 1 2.</_></rects>
      <tilted>0</tilted></_>
    <_>
      <rects>
        <_>
          36 3 2 2 -1.</_>
        <_>
          36 3 1 1 2.</_>
        <_>
          37 4 1 1 2.</_></rects>
      <tilted>0</tilted></_>
    <_>
      <rects>
        <_>
          36 3 2 11 -1.</_>
        <_>
          37 3 1 11 2.</_></rects>
      <tilted>0</tilted></_>
    <_>
      <rects>
        <_>
          36 4 2 2 -1.</_>
        <_>
          36 4 1 1 2.</_>
        <_>
          37 5 1 1 2.</_></rects>
      <tilted>0</tilted></_>
    <_>
      <rects>
        <_>
          36 19 1 2 -1.</_>
        <_>
          36 20 1 1 2.</_></rects>
      <tilted>0</tilted></_>
    <_>
      <rects>
        <_>
          36 20 2 4 -1.</_>
        <_>
          37 20 1 4 2.</_></rects>
      <tilted>0</tilted></_>
    <_>
      <rects>
        <_>
          36 21 1 3 -1.</_>
        <_>
          36 22 1 1 2.</_></rects>
      <tilted>0</tilted></_>
    <_>
      <rects>
        <_>
          37 0 1 4 -1.</_>
        <_>
          37 2 1 2 2.</_></rects>
      <tilted>0</tilted></_>
    <_>
      <rects>
        <_>
          37 6 1 3 -1.</_>
        <_>
          37 7 1 1 2.</_></rects>
      <tilted>0</tilted></_>
    <_>
      <rects>
        <_>
          37 8 1 4 -1.</_>
        <_>
          37 10 1 2 2.</_></rects>
      <tilted>0</tilted></_>
    <_>
      <rects>
        <_>
          37 22 1 2 -1.</_>
        <_>
          37 23 1 1 2.</_></rects>
      <tilted>0</tilted></_></features></cascade>
</opencv_storage>
