<?xml version="1.0"?>
<opencv_storage>
<stage16>
  <maxWeakCount>6</maxWeakCount>
  <stageThreshold>-2.9140421748161316e-01</stageThreshold>
  <weakClassifiers>
    <_>
      <internalNodes>
        0 -1 404191 -2.3825822863727808e-03</internalNodes>
      <leafValues>
        4.5335277915000916e-01 -9.5312500000000000e-01</leafValues></_>
    <_>
      <internalNodes>
        0 -1 405229 -3.6938441917300224e-03</internalNodes>
      <leafValues>
        -5.2595365047454834e-01 3.3074742555618286e-01</leafValues></_>
    <_>
      <internalNodes>
        0 -1 404223 5.3533241152763367e-03</internalNodes>
      <leafValues>
        -2.9808545112609863e-01 6.4680093526840210e-01</leafValues></_>
    <_>
      <internalNodes>
        0 -1 404460 -1.7228720244020224e-03</internalNodes>
      <leafValues>
        4.3644380569458008e-01 -3.7904495000839233e-01</leafValues></_>
    <_>
      <internalNodes>
        0 -1 207977 1.2906514108181000e-02</internalNodes>
      <leafValues>
        2.0610570907592773e-01 -7.4930095672607422e-01</leafValues></_>
    <_>
      <internalNodes>
        0 -1 41342 -2.7187616797164083e-04</internalNodes>
      <leafValues>
        3.5092693567276001e-01 -4.2867022752761841e-01</leafValues></_></weakClassifiers></stage16>
</opencv_storage>
