<?xml version="1.0"?>
<opencv_storage>
<stage9>
  <maxWeakCount>5</maxWeakCount>
  <stageThreshold>-2.2904428839683533e-01</stageThreshold>
  <weakClassifiers>
    <_>
      <internalNodes>
        0 -1 41020 2.2216387151274830e-04</internalNodes>
      <leafValues>
        4.9806350469589233e-01 -6.8421053886413574e-01</leafValues></_>
    <_>
      <internalNodes>
        0 -1 397960 -3.3240977209061384e-03</internalNodes>
      <leafValues>
        6.7653673887252808e-01 -3.2098910212516785e-01</leafValues></_>
    <_>
      <internalNodes>
        0 -1 256410 2.3527410812675953e-03</internalNodes>
      <leafValues>
        -4.5281785726547241e-01 5.3492778539657593e-01</leafValues></_>
    <_>
      <internalNodes>
        0 -1 20987 6.7453561350703239e-03</internalNodes>
      <leafValues>
        -3.5056990385055542e-01 5.9793651103973389e-01</leafValues></_>
    <_>
      <internalNodes>
        0 -1 341613 -4.1835679439827800e-04</internalNodes>
      <leafValues>
        5.9179747104644775e-01 -3.7747880816459656e-01</leafValues></_></weakClassifiers></stage9>
</opencv_storage>
