<?xml version="1.0"?>
<opencv_storage>
<stage12>
  <maxWeakCount>5</maxWeakCount>
  <stageThreshold>-1.4402816295623779e+00</stageThreshold>
  <weakClassifiers>
    <_>
      <internalNodes>
        0 -1 102257 6.3908919692039490e-03</internalNodes>
      <leafValues>
        -8.2413470745086670e-01 6.1832058429718018e-01</leafValues></_>
    <_>
      <internalNodes>
        0 -1 379445 -3.6512140184640884e-02</internalNodes>
      <leafValues>
        6.9144529104232788e-01 -6.4777952432632446e-01</leafValues></_>
    <_>
      <internalNodes>
        0 -1 438412 8.3861767780035734e-04</internalNodes>
      <leafValues>
        -5.3698277473449707e-01 5.7847946882247925e-01</leafValues></_>
    <_>
      <internalNodes>
        0 -1 116257 -1.3445725664496422e-02</internalNodes>
      <leafValues>
        4.1408792138099670e-01 -7.3673212528228760e-01</leafValues></_>
    <_>
      <internalNodes>
        0 -1 25824 2.4013961665332317e-03</internalNodes>
      <leafValues>
        -9.6093475818634033e-01 3.4333568811416626e-01</leafValues></_></weakClassifiers></stage12>
</opencv_storage>
