<?xml version="1.0"?>
<opencv_storage>
<stage9>
  <maxWeakCount>5</maxWeakCount>
  <stageThreshold>-2.3373291492462158e+00</stageThreshold>
  <weakClassifiers>
    <_>
      <internalNodes>
        0 -1 475941 -3.3154019620269537e-03</internalNodes>
      <leafValues>
        7.5965666770935059e-01 -8.2002770900726318e-01</leafValues></_>
    <_>
      <internalNodes>
        0 -1 106391 -2.5709114968776703e-02</internalNodes>
      <leafValues>
        4.9600750207901001e-01 -8.1491607427597046e-01</leafValues></_>
    <_>
      <internalNodes>
        0 -1 322093 3.4485362470149994e-02</internalNodes>
      <leafValues>
        -7.9553103446960449e-01 3.7820354104042053e-01</leafValues></_>
    <_>
      <internalNodes>
        0 -1 19399 8.1962859258055687e-03</internalNodes>
      <leafValues>
        -9.6924173831939697e-01 2.9359135031700134e-01</leafValues></_>
    <_>
      <internalNodes>
        0 -1 345362 9.9123641848564148e-04</internalNodes>
      <leafValues>
        -5.1729679107666016e-01 6.4434802532196045e-01</leafValues></_></weakClassifiers></stage9>
</opencv_storage>
