<?xml version="1.0"?>
<opencv_storage>
<stage15>
  <maxWeakCount>7</maxWeakCount>
  <stageThreshold>-5.4138040542602539e-01</stageThreshold>
  <weakClassifiers>
    <_>
      <internalNodes>
        0 -1 244424 5.5710191372781992e-04</internalNodes>
      <leafValues>
        -4.2424243688583374e-01 6.0507243871688843e-01</leafValues></_>
    <_>
      <internalNodes>
        0 -1 212161 -4.1108787991106510e-04</internalNodes>
      <leafValues>
        -9.3031144142150879e-01 2.5413504242897034e-01</leafValues></_>
    <_>
      <internalNodes>
        0 -1 236867 2.4037100956775248e-04</internalNodes>
      <leafValues>
        -5.4481935501098633e-01 2.9823398590087891e-01</leafValues></_>
    <_>
      <internalNodes>
        0 -1 181310 1.1968379840254784e-02</internalNodes>
      <leafValues>
        1.7794109880924225e-01 -9.4004321098327637e-01</leafValues></_>
    <_>
      <internalNodes>
        0 -1 237605 8.3404744509607553e-04</internalNodes>
      <leafValues>
        -2.8276234865188599e-01 7.3157972097396851e-01</leafValues></_>
    <_>
      <internalNodes>
        0 -1 169430 -1.8532220274209976e-02</internalNodes>
      <leafValues>
        -9.3598127365112305e-01 1.8426181375980377e-01</leafValues></_>
    <_>
      <internalNodes>
        0 -1 192326 -1.5322403050959110e-03</internalNodes>
      <leafValues>
        1.6559439897537231e-01 -9.3520909547805786e-01</leafValues></_></weakClassifiers></stage15>
</opencv_storage>
