<?xml version="1.0"?>
<opencv_storage>
<stage14>
  <maxWeakCount>8</maxWeakCount>
  <stageThreshold>-1.0870430469512939e+00</stageThreshold>
  <weakClassifiers>
    <_>
      <internalNodes>
        0 -1 191574 6.8348471540957689e-04</internalNodes>
      <leafValues>
        -4.4920441508293152e-01 6.2620246410369873e-01</leafValues></_>
    <_>
      <internalNodes>
        0 -1 212161 -2.2410644305637106e-05</internalNodes>
      <leafValues>
        3.0074363946914673e-01 -8.1697565317153931e-01</leafValues></_>
    <_>
      <internalNodes>
        0 -1 157214 -1.8069203943014145e-02</internalNodes>
      <leafValues>
        -8.6799365282058716e-01 2.2866147756576538e-01</leafValues></_>
    <_>
      <internalNodes>
        0 -1 107208 -2.7321167290210724e-03</internalNodes>
      <leafValues>
        2.1109651029109955e-01 -7.1273058652877808e-01</leafValues></_>
    <_>
      <internalNodes>
        0 -1 120261 -1.6151182353496552e-02</internalNodes>
      <leafValues>
        -8.5205930471420288e-01 2.0931215584278107e-01</leafValues></_>
    <_>
      <internalNodes>
        0 -1 202263 3.0192846679710783e-05</internalNodes>
      <leafValues>
        -8.8560736179351807e-01 1.5788057446479797e-01</leafValues></_>
    <_>
      <internalNodes>
        0 -1 212976 1.0455085430294275e-05</internalNodes>
      <leafValues>
        -9.0978068113327026e-01 1.5211026370525360e-01</leafValues></_>
    <_>
      <internalNodes>
        0 -1 222223 -3.6631150578614324e-05</internalNodes>
      <leafValues>
        1.2283892184495926e-01 -9.7277313470840454e-01</leafValues></_></weakClassifiers></stage14>
</opencv_storage>
