<?xml version="1.0"?>
<opencv_storage>
<stage12>
  <maxWeakCount>5</maxWeakCount>
  <stageThreshold>-5.1125156879425049e-01</stageThreshold>
  <weakClassifiers>
    <_>
      <internalNodes>
        0 -1 212590 1.0083397501148283e-04</internalNodes>
      <leafValues>
        -9.4029849767684937e-01 5.3040802478790283e-01</leafValues></_>
    <_>
      <internalNodes>
        0 -1 171531 1.0185453575104475e-03</internalNodes>
      <leafValues>
        -6.4249163866043091e-01 3.5893040895462036e-01</leafValues></_>
    <_>
      <internalNodes>
        0 -1 221482 1.0389752787887119e-05</internalNodes>
      <leafValues>
        -8.1974267959594727e-01 2.6182025671005249e-01</leafValues></_>
    <_>
      <internalNodes>
        0 -1 221482 1.1879859084729105e-04</internalNodes>
      <leafValues>
        2.5440087914466858e-01 -8.3632600307464600e-01</leafValues></_>
    <_>
      <internalNodes>
        0 -1 204072 3.0199956381693482e-04</internalNodes>
      <leafValues>
        -9.0803664922714233e-01 1.7533777654170990e-01</leafValues></_></weakClassifiers></stage12>
</opencv_storage>
