<?xml version="1.0"?>
<opencv_storage>
<stage16>
  <maxWeakCount>9</maxWeakCount>
  <stageThreshold>-1.2431383132934570e+00</stageThreshold>
  <weakClassifiers>
    <_>
      <internalNodes>
        0 -1 193556 5.0450162962079048e-04</internalNodes>
      <leafValues>
        -3.5881105065345764e-01 6.5014576911926270e-01</leafValues></_>
    <_>
      <internalNodes>
        0 -1 170564 -1.5539961168542504e-04</internalNodes>
      <leafValues>
        3.4185776114463806e-01 -7.2369736433029175e-01</leafValues></_>
    <_>
      <internalNodes>
        0 -1 159611 -1.5525417402386665e-02</internalNodes>
      <leafValues>
        -8.8820564746856689e-01 2.2994622588157654e-01</leafValues></_>
    <_>
      <internalNodes>
        0 -1 212981 -4.3087772792205215e-04</internalNodes>
      <leafValues>
        -8.1033349037170410e-01 1.4722600579261780e-01</leafValues></_>
    <_>
      <internalNodes>
        0 -1 230182 5.1925366278737783e-04</internalNodes>
      <leafValues>
        -3.3056241273880005e-01 5.2125620841979980e-01</leafValues></_>
    <_>
      <internalNodes>
        0 -1 212207 -3.8342823245329782e-05</internalNodes>
      <leafValues>
        2.6442715525627136e-01 -6.5921330451965332e-01</leafValues></_>
    <_>
      <internalNodes>
        0 -1 203239 7.1541441138833761e-04</internalNodes>
      <leafValues>
        -9.1379964351654053e-01 1.7355291545391083e-01</leafValues></_>
    <_>
      <internalNodes>
        0 -1 172662 6.5051880665123463e-03</internalNodes>
      <leafValues>
        1.5387362241744995e-01 -8.9366829395294189e-01</leafValues></_>
    <_>
      <internalNodes>
        0 -1 212322 -8.2934182137250900e-03</internalNodes>
      <leafValues>
        -8.0895948410034180e-01 1.2454705685377121e-01</leafValues></_></weakClassifiers></stage16>
</opencv_storage>
