<?xml version="1.0"?>
<opencv_storage>
<stage17>
  <maxWeakCount>8</maxWeakCount>
  <stageThreshold>-5.4846429824829102e-01</stageThreshold>
  <weakClassifiers>
    <_>
      <internalNodes>
        0 -1 118836 1.1298246681690216e-03</internalNodes>
      <leafValues>
        5.2282649278640747e-01 -6.5904366970062256e-01</leafValues></_>
    <_>
      <internalNodes>
        0 -1 148116 5.9252069331705570e-04</internalNodes>
      <leafValues>
        -5.1915472745895386e-01 4.0163981914520264e-01</leafValues></_>
    <_>
      <internalNodes>
        0 -1 221482 2.2889678803039715e-05</internalNodes>
      <leafValues>
        -7.9369622468948364e-01 2.2611647844314575e-01</leafValues></_>
    <_>
      <internalNodes>
        0 -1 211961 5.0382511690258980e-03</internalNodes>
      <leafValues>
        -5.0142282247543335e-01 2.8226697444915771e-01</leafValues></_>
    <_>
      <internalNodes>
        0 -1 212628 2.2296582756098360e-04</internalNodes>
      <leafValues>
        1.7848958075046539e-01 -8.6592638492584229e-01</leafValues></_>
    <_>
      <internalNodes>
        0 -1 230182 5.1097245886921883e-04</internalNodes>
      <leafValues>
        -3.7362879514694214e-01 4.7561430931091309e-01</leafValues></_>
    <_>
      <internalNodes>
        0 -1 212586 -1.5715786139480770e-04</internalNodes>
      <leafValues>
        -9.5406866073608398e-01 1.6807948052883148e-01</leafValues></_>
    <_>
      <internalNodes>
        0 -1 221486 -7.2485869168303907e-05</internalNodes>
      <leafValues>
        1.4841035008430481e-01 -8.1378382444381714e-01</leafValues></_></weakClassifiers></stage17>
</opencv_storage>
