<?xml version="1.0"?>
<opencv_storage>
<stage12>
  <maxWeakCount>19</maxWeakCount>
  <stageThreshold>-8.9213836193084717e-01</stageThreshold>
  <weakClassifiers>
    <_>
      <internalNodes>
        0 -1 527036 -2.4206589162349701e-01</internalNodes>
      <leafValues>
        4.2977419495582581e-01 -3.1782945990562439e-01</leafValues></_>
    <_>
      <internalNodes>
        0 -1 76378 1.2564826756715775e-03</internalNodes>
      <leafValues>
        -1.8961434066295624e-01 3.6536011099815369e-01</leafValues></_>
    <_>
      <internalNodes>
        0 -1 43246 5.1904255524277687e-03</internalNodes>
      <leafValues>
        -8.0744422972202301e-02 7.8143376111984253e-01</leafValues></_>
    <_>
      <internalNodes>
        0 -1 489129 2.6908800937235355e-03</internalNodes>
      <leafValues>
        -1.6650427877902985e-01 4.6343123912811279e-01</leafValues></_>
    <_>
      <internalNodes>
        0 -1 698604 -4.8248446546494961e-04</internalNodes>
      <leafValues>
        2.8324744105339050e-01 -2.7751389145851135e-01</leafValues></_>
    <_>
      <internalNodes>
        0 -1 447766 4.7411015257239342e-03</internalNodes>
      <leafValues>
        -1.6168327629566193e-01 4.1030028462409973e-01</leafValues></_>
    <_>
      <internalNodes>
        0 -1 698477 5.1109404012095183e-05</internalNodes>
      <leafValues>
        -3.0320957303047180e-01 2.5061711668968201e-01</leafValues></_>
    <_>
      <internalNodes>
        0 -1 695254 -1.0962722823023796e-02</internalNodes>
      <leafValues>
        4.0148094296455383e-01 -1.7489063739776611e-01</leafValues></_>
    <_>
      <internalNodes>
        0 -1 193651 -5.5029720533639193e-04</internalNodes>
      <leafValues>
        -1.0778963565826416e-01 5.6850570440292358e-01</leafValues></_>
    <_>
      <internalNodes>
        0 -1 34523 -8.5892371134832501e-04</internalNodes>
      <leafValues>
        3.1589028239250183e-01 -2.8719678521156311e-01</leafValues></_>
    <_>
      <internalNodes>
        0 -1 48475 1.6880708280950785e-03</internalNodes>
      <leafValues>
        -1.0657714307308197e-01 5.5078661441802979e-01</leafValues></_>
    <_>
      <internalNodes>
        0 -1 26002 -5.2622682414948940e-03</internalNodes>
      <leafValues>
        4.2429879307746887e-01 -1.5438780188560486e-01</leafValues></_>
    <_>
      <internalNodes>
        0 -1 331410 -2.4017230316530913e-04</internalNodes>
      <leafValues>
        -4.3002882599830627e-01 1.7382207512855530e-01</leafValues></_>
    <_>
      <internalNodes>
        0 -1 28143 6.7156087607145309e-03</internalNodes>
      <leafValues>
        -1.3237528502941132e-01 6.1428362131118774e-01</leafValues></_>
    <_>
      <internalNodes>
        0 -1 163991 8.4048719145357609e-04</internalNodes>
      <leafValues>
        -9.4655230641365051e-02 6.3270199298858643e-01</leafValues></_>
    <_>
      <internalNodes>
        0 -1 694007 3.4424101613694802e-05</internalNodes>
      <leafValues>
        2.1881341934204102e-01 -3.4543830156326294e-01</leafValues></_>
    <_>
      <internalNodes>
        0 -1 680973 -1.7528159543871880e-02</internalNodes>
      <leafValues>
        4.3603843450546265e-01 -1.8137352168560028e-01</leafValues></_>
    <_>
      <internalNodes>
        0 -1 626037 2.7328091673552990e-03</internalNodes>
      <leafValues>
        -1.9359892606735229e-01 3.4824499487876892e-01</leafValues></_>
    <_>
      <internalNodes>
        0 -1 696142 -2.6918796720565297e-05</internalNodes>
      <leafValues>
        -2.9968327283859253e-01 2.1449893712997437e-01</leafValues></_></weakClassifiers></stage12>
</opencv_storage>
