<?xml version="1.0"?>
<opencv_storage>
<stage15>
  <maxWeakCount>25</maxWeakCount>
  <stageThreshold>-6.3783210515975952e-01</stageThreshold>
  <weakClassifiers>
    <_>
      <internalNodes>
        0 -1 34309 -1.7366941028740257e-04</internalNodes>
      <leafValues>
        5.2314001321792603e-01 8.2753285765647888e-02</leafValues></_>
    <_>
      <internalNodes>
        0 -1 29054 -4.7215139493346214e-03</internalNodes>
      <leafValues>
        6.1308366060256958e-01 -6.0584269464015961e-02</leafValues></_>
    <_>
      <internalNodes>
        0 -1 72621 -2.8688220481853932e-05</internalNodes>
      <leafValues>
        1.9876362383365631e-01 -2.9801389575004578e-01</leafValues></_>
    <_>
      <internalNodes>
        0 -1 130924 -2.2292458452284336e-03</internalNodes>
      <leafValues>
        5.2608698606491089e-01 -1.1820686608552933e-01</leafValues></_>
    <_>
      <internalNodes>
        0 -1 405554 1.9930808339267969e-03</internalNodes>
      <leafValues>
        -1.6399359703063965e-01 3.7881869077682495e-01</leafValues></_>
    <_>
      <internalNodes>
        0 -1 101 -9.9257775582373142e-04</internalNodes>
      <leafValues>
        -8.7922859191894531e-01 8.6029984056949615e-02</leafValues></_>
    <_>
      <internalNodes>
        0 -1 36966 1.3266067253425717e-03</internalNodes>
      <leafValues>
        -1.9257700443267822e-01 3.1709018349647522e-01</leafValues></_>
    <_>
      <internalNodes>
        0 -1 698413 -7.8350998228415847e-04</internalNodes>
      <leafValues>
        3.3918550610542297e-01 -1.6556835174560547e-01</leafValues></_>
    <_>
      <internalNodes>
        0 -1 68231 1.5330490714404732e-04</internalNodes>
      <leafValues>
        1.4261373877525330e-01 -4.2475286126136780e-01</leafValues></_>
    <_>
      <internalNodes>
        0 -1 686143 1.2805263395421207e-04</internalNodes>
      <leafValues>
        1.4898937940597534e-01 -4.4780328869819641e-01</leafValues></_>
    <_>
      <internalNodes>
        0 -1 39055 -2.1256245672702789e-03</internalNodes>
      <leafValues>
        3.6300033330917358e-01 -1.5054383873939514e-01</leafValues></_>
    <_>
      <internalNodes>
        0 -1 636352 1.0028983466327190e-02</internalNodes>
      <leafValues>
        -1.1322831362485886e-01 5.5416786670684814e-01</leafValues></_>
    <_>
      <internalNodes>
        0 -1 65163 -1.1795644240919501e-04</internalNodes>
      <leafValues>
        -3.9933195710182190e-01 2.0239430665969849e-01</leafValues></_>
    <_>
      <internalNodes>
        0 -1 700287 -4.5256855082698166e-04</internalNodes>
      <leafValues>
        -1.0352870821952820e-01 6.1107766628265381e-01</leafValues></_>
    <_>
      <internalNodes>
        0 -1 382179 2.0847192499786615e-03</internalNodes>
      <leafValues>
        -9.7283951938152313e-02 5.2107894420623779e-01</leafValues></_>
    <_>
      <internalNodes>
        0 -1 529706 -3.9891056716442108e-02</internalNodes>
      <leafValues>
        1.0786409676074982e-01 -6.2681984901428223e-01</leafValues></_>
    <_>
      <internalNodes>
        0 -1 699073 -1.3484037481248379e-02</internalNodes>
      <leafValues>
        -3.9077666401863098e-01 1.5080735087394714e-01</leafValues></_>
    <_>
      <internalNodes>
        0 -1 34288 -9.7836623899638653e-04</internalNodes>
      <leafValues>
        5.8416885137557983e-01 -9.7760163247585297e-02</leafValues></_>
    <_>
      <internalNodes>
        0 -1 692906 -5.8390072808833793e-05</internalNodes>
      <leafValues>
        2.1476699411869049e-01 -2.7824640274047852e-01</leafValues></_>
    <_>
      <internalNodes>
        0 -1 395306 3.7504290230572224e-03</internalNodes>
      <leafValues>
        8.4160983562469482e-02 -6.9837993383407593e-01</leafValues></_>
    <_>
      <internalNodes>
        0 -1 34733 4.9165971577167511e-03</internalNodes>
      <leafValues>
        -1.7239576578140259e-01 3.8482031226158142e-01</leafValues></_>
    <_>
      <internalNodes>
        0 -1 699474 -2.7194456197321415e-04</internalNodes>
      <leafValues>
        3.7335318326950073e-01 -1.7221264541149139e-01</leafValues></_>
    <_>
      <internalNodes>
        0 -1 692894 3.9155688136816025e-04</internalNodes>
      <leafValues>
        1.0240631550550461e-01 -6.2362146377563477e-01</leafValues></_>
    <_>
      <internalNodes>
        0 -1 698500 5.7230331003665924e-04</internalNodes>
      <leafValues>
        -1.3912077248096466e-01 5.1150757074356079e-01</leafValues></_>
    <_>
      <internalNodes>
        0 -1 698504 -6.8439554888755083e-04</internalNodes>
      <leafValues>
        3.3629685640335083e-01 -1.5959048271179199e-01</leafValues></_></weakClassifiers></stage15>
</opencv_storage>
