<?xml version="1.0"?>
<opencv_storage>
<stage11>
  <maxWeakCount>18</maxWeakCount>
  <stageThreshold>-7.9329651594161987e-01</stageThreshold>
  <weakClassifiers>
    <_>
      <internalNodes>
        0 -1 34011 -1.0765437036752701e-02</internalNodes>
      <leafValues>
        -9.3043476343154907e-01 3.8370883464813232e-01</leafValues></_>
    <_>
      <internalNodes>
        0 -1 222905 -1.8024597316980362e-02</internalNodes>
      <leafValues>
        3.8664075732231140e-01 -2.5831049680709839e-01</leafValues></_>
    <_>
      <internalNodes>
        0 -1 66368 -6.4873893279582262e-04</internalNodes>
      <leafValues>
        -1.3213765621185303e-01 5.9856861829757690e-01</leafValues></_>
    <_>
      <internalNodes>
        0 -1 700120 6.7622738424688578e-04</internalNodes>
      <leafValues>
        -1.5521487593650818e-01 5.3940188884735107e-01</leafValues></_>
    <_>
      <internalNodes>
        0 -1 251780 -1.0933491284959018e-04</internalNodes>
      <leafValues>
        -3.6279773712158203e-01 2.0561796426773071e-01</leafValues></_>
    <_>
      <internalNodes>
        0 -1 19282 7.3088733479380608e-03</internalNodes>
      <leafValues>
        -1.2890033423900604e-01 6.0021042823791504e-01</leafValues></_>
    <_>
      <internalNodes>
        0 -1 698507 5.0835125148296356e-04</internalNodes>
      <leafValues>
        -1.8823511898517609e-01 3.5360324382781982e-01</leafValues></_>
    <_>
      <internalNodes>
        0 -1 222658 2.3830680220271461e-05</internalNodes>
      <leafValues>
        2.2291904687881470e-01 -3.3447882533073425e-01</leafValues></_>
    <_>
      <internalNodes>
        0 -1 394550 9.8697738721966743e-03</internalNodes>
      <leafValues>
        8.0602936446666718e-02 -8.1623834371566772e-01</leafValues></_>
    <_>
      <internalNodes>
        0 -1 419248 -8.8931918144226074e-03</internalNodes>
      <leafValues>
        -4.5076039433479309e-01 1.3481913506984711e-01</leafValues></_>
    <_>
      <internalNodes>
        0 -1 541383 4.3668111902661622e-04</internalNodes>
      <leafValues>
        -2.2235888242721558e-01 2.8289058804512024e-01</leafValues></_>
    <_>
      <internalNodes>
        0 -1 92698 -1.0175307095050812e-01</internalNodes>
      <leafValues>
        2.4603123962879181e-01 -2.6417312026023865e-01</leafValues></_>
    <_>
      <internalNodes>
        0 -1 684534 -1.6090195858851075e-03</internalNodes>
      <leafValues>
        2.9087531566619873e-01 -2.2725206613540649e-01</leafValues></_>
    <_>
      <internalNodes>
        0 -1 699940 -4.6184877865016460e-03</internalNodes>
      <leafValues>
        4.7069206833839417e-01 -1.8009315431118011e-01</leafValues></_>
    <_>
      <internalNodes>
        0 -1 358903 -9.0540396049618721e-03</internalNodes>
      <leafValues>
        5.4238885641098022e-01 -1.5421834588050842e-01</leafValues></_>
    <_>
      <internalNodes>
        0 -1 67293 -1.0457984171807766e-03</internalNodes>
      <leafValues>
        5.1242345571517944e-01 -1.3550895452499390e-01</leafValues></_>
    <_>
      <internalNodes>
        0 -1 11050 6.6159382462501526e-02</internalNodes>
      <leafValues>
        -2.1218217909336090e-01 3.2838013768196106e-01</leafValues></_>
    <_>
      <internalNodes>
        0 -1 507759 -4.3300091056153178e-04</internalNodes>
      <leafValues>
        3.2437753677368164e-01 -2.1316446363925934e-01</leafValues></_></weakClassifiers></stage11>
</opencv_storage>
