<?xml version="1.0"?>
<opencv_storage>
<stage6>
  <maxWeakCount>11</maxWeakCount>
  <stageThreshold>-6.3827443122863770e-01</stageThreshold>
  <weakClassifiers>
    <_>
      <internalNodes>
        0 -1 34290 -9.7909173928201199e-04</internalNodes>
      <leafValues>
        5.7099543511867523e-02 8.6875611543655396e-01</leafValues></_>
    <_>
      <internalNodes>
        0 -1 132674 7.5974408537149429e-04</internalNodes>
      <leafValues>
        -5.3806908428668976e-02 8.8881891965866089e-01</leafValues></_>
    <_>
      <internalNodes>
        0 -1 700190 -1.2055991217494011e-02</internalNodes>
      <leafValues>
        -4.1459298133850098e-01 3.1704026460647583e-01</leafValues></_>
    <_>
      <internalNodes>
        0 -1 699926 6.8797543644905090e-04</internalNodes>
      <leafValues>
        -1.9577376544475555e-01 8.1850373744964600e-01</leafValues></_>
    <_>
      <internalNodes>
        0 -1 34608 -1.1244639754295349e-02</internalNodes>
      <leafValues>
        7.5222980976104736e-01 -1.4614713191986084e-01</leafValues></_>
    <_>
      <internalNodes>
        0 -1 696249 -1.1789591517299414e-03</internalNodes>
      <leafValues>
        5.3524065017700195e-01 -2.2568824887275696e-01</leafValues></_>
    <_>
      <internalNodes>
        0 -1 34613 -3.2002427615225315e-03</internalNodes>
      <leafValues>
        -5.7101666927337646e-01 2.4539230763912201e-01</leafValues></_>
    <_>
      <internalNodes>
        0 -1 22106 9.6897711046040058e-04</internalNodes>
      <leafValues>
        -1.7378836870193481e-01 9.2810970544815063e-01</leafValues></_>
    <_>
      <internalNodes>
        0 -1 8950 4.7224378213286400e-03</internalNodes>
      <leafValues>
        -7.5761631131172180e-02 9.2747706174850464e-01</leafValues></_>
    <_>
      <internalNodes>
        0 -1 544760 -1.5590621158480644e-02</internalNodes>
      <leafValues>
        -8.1510901451110840e-01 1.7997221648693085e-01</leafValues></_>
    <_>
      <internalNodes>
        0 -1 542135 2.5150938890874386e-03</internalNodes>
      <leafValues>
        -3.3266040682792664e-01 3.3838975429534912e-01</leafValues></_></weakClassifiers></stage6>
</opencv_storage>
