<?xml version="1.0"?>
<opencv_storage>
<stage17>
  <maxWeakCount>23</maxWeakCount>
  <stageThreshold>-6.3142520189285278e-01</stageThreshold>
  <weakClassifiers>
    <_>
      <internalNodes>
        0 -1 557417 -2.3523515556007624e-03</internalNodes>
      <leafValues>
        3.7907138466835022e-01 -8.2456141710281372e-01</leafValues></_>
    <_>
      <internalNodes>
        0 -1 683978 -3.7378570996224880e-03</internalNodes>
      <leafValues>
        -1.8035385012626648e-01 2.9818695783615112e-01</leafValues></_>
    <_>
      <internalNodes>
        0 -1 33745 1.0647103190422058e-03</internalNodes>
      <leafValues>
        -3.4713798761367798e-01 1.4163151383399963e-01</leafValues></_>
    <_>
      <internalNodes>
        0 -1 251291 1.3771925296168774e-04</internalNodes>
      <leafValues>
        1.8613928556442261e-01 -2.8472903370857239e-01</leafValues></_>
    <_>
      <internalNodes>
        0 -1 520421 -1.5851287753321230e-04</internalNodes>
      <leafValues>
        2.4711942672729492e-01 -1.8616889417171478e-01</leafValues></_>
    <_>
      <internalNodes>
        0 -1 100938 -2.1235104650259018e-02</internalNodes>
      <leafValues>
        7.1278321743011475e-01 -9.3475587666034698e-02</leafValues></_>
    <_>
      <internalNodes>
        0 -1 44908 4.6698572114109993e-03</internalNodes>
      <leafValues>
        -1.2602449953556061e-01 4.1641137003898621e-01</leafValues></_>
    <_>
      <internalNodes>
        0 -1 14353 -9.1510154306888580e-03</internalNodes>
      <leafValues>
        5.2091050148010254e-01 -1.3175185024738312e-01</leafValues></_>
    <_>
      <internalNodes>
        0 -1 27056 -2.2860523313283920e-03</internalNodes>
      <leafValues>
        3.8095563650131226e-01 -1.2569689750671387e-01</leafValues></_>
    <_>
      <internalNodes>
        0 -1 68201 1.2061730376444757e-04</internalNodes>
      <leafValues>
        -7.6531402766704559e-02 7.9271441698074341e-01</leafValues></_>
    <_>
      <internalNodes>
        0 -1 600989 1.6439193132100627e-05</internalNodes>
      <leafValues>
        -2.5841388106346130e-01 2.1462801098823547e-01</leafValues></_>
    <_>
      <internalNodes>
        0 -1 438868 5.4240538738667965e-03</internalNodes>
      <leafValues>
        8.3503402769565582e-02 -6.9359028339385986e-01</leafValues></_>
    <_>
      <internalNodes>
        0 -1 696198 7.3490315116941929e-05</internalNodes>
      <leafValues>
        -2.5988534092903137e-01 2.1697652339935303e-01</leafValues></_>
    <_>
      <internalNodes>
        0 -1 699167 1.9109814893454313e-03</internalNodes>
      <leafValues>
        -1.1013970524072647e-01 5.2620643377304077e-01</leafValues></_>
    <_>
      <internalNodes>
        0 -1 5011 5.5700941011309624e-03</internalNodes>
      <leafValues>
        -1.1534077674150467e-01 5.0176060199737549e-01</leafValues></_>
    <_>
      <internalNodes>
        0 -1 8689 -8.8957342086359859e-05</internalNodes>
      <leafValues>
        2.2204568982124329e-01 -2.8803908824920654e-01</leafValues></_>
    <_>
      <internalNodes>
        0 -1 700120 -4.5607570791617036e-04</internalNodes>
      <leafValues>
        4.2431667447090149e-01 -1.2745705246925354e-01</leafValues></_>
    <_>
      <internalNodes>
        0 -1 696694 1.2802272103726864e-03</internalNodes>
      <leafValues>
        -1.8686959147453308e-01 2.9869878292083740e-01</leafValues></_>
    <_>
      <internalNodes>
        0 -1 508135 -3.5333845298737288e-03</internalNodes>
      <leafValues>
        3.8480022549629211e-01 -1.4908494055271149e-01</leafValues></_>
    <_>
      <internalNodes>
        0 -1 52059 2.6515075936913490e-02</internalNodes>
      <leafValues>
        -2.0705373585224152e-01 2.7057406306266785e-01</leafValues></_>
    <_>
      <internalNodes>
        0 -1 415108 5.7054618373513222e-03</internalNodes>
      <leafValues>
        7.3343396186828613e-02 -7.1833771467208862e-01</leafValues></_>
    <_>
      <internalNodes>
        0 -1 406845 -1.4709347160533071e-03</internalNodes>
      <leafValues>
        2.9118406772613525e-01 -1.7555451393127441e-01</leafValues></_>
    <_>
      <internalNodes>
        0 -1 427700 -9.5982570201158524e-04</internalNodes>
      <leafValues>
        2.3279616236686707e-01 -2.7061700820922852e-01</leafValues></_></weakClassifiers></stage17>
</opencv_storage>
