<?xml version="1.0"?>
<opencv_storage>
<stage2>
  <maxWeakCount>8</maxWeakCount>
  <stageThreshold>-7.5915724039077759e-01</stageThreshold>
  <weakClassifiers>
    <_>
      <internalNodes>
        0 -1 193468 -1.4187168329954147e-02</internalNodes>
      <leafValues>
        7.6728266477584839e-01 -7.8622482717037201e-02</leafValues></_>
    <_>
      <internalNodes>
        0 -1 14555 3.0409043654799461e-02</internalNodes>
      <leafValues>
        -2.5691100955009460e-01 6.3211095333099365e-01</leafValues></_>
    <_>
      <internalNodes>
        0 -1 74446 1.1447710858192295e-04</internalNodes>
      <leafValues>
        -2.8753006458282471e-01 5.0937062501907349e-01</leafValues></_>
    <_>
      <internalNodes>
        0 -1 699982 -1.3132950989529490e-03</internalNodes>
      <leafValues>
        5.4345524311065674e-01 -2.9126641154289246e-01</leafValues></_>
    <_>
      <internalNodes>
        0 -1 696680 -2.1164094505365938e-05</internalNodes>
      <leafValues>
        3.6421409249305725e-01 -5.0208592414855957e-01</leafValues></_>
    <_>
      <internalNodes>
        0 -1 65161 -5.8526583015918732e-02</internalNodes>
      <leafValues>
        4.4570893049240112e-01 -3.3123761415481567e-01</leafValues></_>
    <_>
      <internalNodes>
        0 -1 22136 2.0492146722972393e-03</internalNodes>
      <leafValues>
        -1.9378638267517090e-01 6.1988615989685059e-01</leafValues></_>
    <_>
      <internalNodes>
        0 -1 38960 -1.8770559108816087e-05</internalNodes>
      <leafValues>
        3.4756103157997131e-01 -3.9538696408271790e-01</leafValues></_></weakClassifiers></stage2>
</opencv_storage>
