<?xml version="1.0"?>
<opencv_storage>
<stage1>
  <maxWeakCount>8</maxWeakCount>
  <stageThreshold>-9.0907567739486694e-01</stageThreshold>
  <weakClassifiers>
    <_>
      <internalNodes>
        0 -1 130898 -2.5341220200061798e-02</internalNodes>
      <leafValues>
        7.9318445920944214e-01 -2.6964560151100159e-01</leafValues></_>
    <_>
      <internalNodes>
        0 -1 145194 1.1812323331832886e-01</internalNodes>
      <leafValues>
        3.3695098757743835e-01 -7.9116374254226685e-01</leafValues></_>
    <_>
      <internalNodes>
        0 -1 8712 2.4070057552307844e-03</internalNodes>
      <leafValues>
        -3.2531964778900146e-01 5.3380912542343140e-01</leafValues></_>
    <_>
      <internalNodes>
        0 -1 693073 -2.1627272944897413e-03</internalNodes>
      <leafValues>
        3.8340952992439270e-01 -4.4946223497390747e-01</leafValues></_>
    <_>
      <internalNodes>
        0 -1 447564 -8.1147463060915470e-04</internalNodes>
      <leafValues>
        5.4978537559509277e-01 -3.0498239398002625e-01</leafValues></_>
    <_>
      <internalNodes>
        0 -1 41021 -5.6351232342422009e-04</internalNodes>
      <leafValues>
        5.4981929063796997e-01 -3.1785827875137329e-01</leafValues></_>
    <_>
      <internalNodes>
        0 -1 493082 -1.2569443881511688e-01</internalNodes>
      <leafValues>
        2.6119518280029297e-01 -6.4230227470397949e-01</leafValues></_>
    <_>
      <internalNodes>
        0 -1 520374 -5.1036626100540161e-03</internalNodes>
      <leafValues>
        -8.3935111761093140e-01 2.0877604186534882e-01</leafValues></_></weakClassifiers></stage1>
</opencv_storage>
