<?xml version="1.0"?>
<opencv_storage>
<stage7>
  <maxWeakCount>11</maxWeakCount>
  <stageThreshold>-7.5749170780181885e-01</stageThreshold>
  <weakClassifiers>
    <_>
      <internalNodes>
        0 -1 434767 8.8690351694822311e-03</internalNodes>
      <leafValues>
        4.5175439119338989e-01 -8.9393937587738037e-01</leafValues></_>
    <_>
      <internalNodes>
        0 -1 698986 -3.2247318886220455e-03</internalNodes>
      <leafValues>
        5.5762517452239990e-01 -2.3963013291358948e-01</leafValues></_>
    <_>
      <internalNodes>
        0 -1 308064 2.0596522372215986e-03</internalNodes>
      <leafValues>
        -2.3284938931465149e-01 4.6901819109916687e-01</leafValues></_>
    <_>
      <internalNodes>
        0 -1 43246 4.7632576897740364e-03</internalNodes>
      <leafValues>
        -1.8247781693935394e-01 9.0467679500579834e-01</leafValues></_>
    <_>
      <internalNodes>
        0 -1 692917 -1.3296028599143028e-02</internalNodes>
      <leafValues>
        -9.5297211408615112e-01 1.9396843016147614e-01</leafValues></_>
    <_>
      <internalNodes>
        0 -1 696025 -2.2008649539202452e-03</internalNodes>
      <leafValues>
        4.8905339837074280e-01 -2.8875252604484558e-01</leafValues></_>
    <_>
      <internalNodes>
        0 -1 244946 -2.5286855176091194e-02</internalNodes>
      <leafValues>
        -8.1321197748184204e-01 1.6321380436420441e-01</leafValues></_>
    <_>
      <internalNodes>
        0 -1 531000 2.3697823286056519e-02</internalNodes>
      <leafValues>
        1.1189521849155426e-01 -8.6116683483123779e-01</leafValues></_>
    <_>
      <internalNodes>
        0 -1 43003 1.3062879443168640e-03</internalNodes>
      <leafValues>
        -2.4590227007865906e-01 5.1292932033538818e-01</leafValues></_>
    <_>
      <internalNodes>
        0 -1 698477 6.0192542150616646e-05</internalNodes>
      <leafValues>
        -3.3725249767303467e-01 3.3675003051757812e-01</leafValues></_>
    <_>
      <internalNodes>
        0 -1 557429 6.6302914638072252e-04</internalNodes>
      <leafValues>
        -1.5145891904830933e-01 7.3921012878417969e-01</leafValues></_></weakClassifiers></stage7>
</opencv_storage>
