<?xml version="1.0"?>
<opencv_storage>
<stage10>
  <maxWeakCount>26</maxWeakCount>
  <stageThreshold>-7.1957892179489136e-01</stageThreshold>
  <weakClassifiers>
    <_>
      <internalNodes>
        0 -1 169265 1.0219244286417961e-02</internalNodes>
      <leafValues>
        4.1261261701583862e-01 -6.4444446563720703e-01</leafValues></_>
    <_>
      <internalNodes>
        0 -1 111571 -3.0145075172185898e-02</internalNodes>
      <leafValues>
        4.3720945715904236e-01 -1.8116295337677002e-01</leafValues></_>
    <_>
      <internalNodes>
        0 -1 216703 6.3441395759582520e-03</internalNodes>
      <leafValues>
        7.8694880008697510e-02 -6.8481981754302979e-01</leafValues></_>
    <_>
      <internalNodes>
        0 -1 181156 -1.2137552723288536e-02</internalNodes>
      <leafValues>
        -5.5615246295928955e-01 1.2241194397211075e-01</leafValues></_>
    <_>
      <internalNodes>
        0 -1 253467 -2.3620154242962599e-03</internalNodes>
      <leafValues>
        -2.2705520689487457e-01 3.2681983709335327e-01</leafValues></_>
    <_>
      <internalNodes>
        0 -1 287394 -3.1491257250308990e-03</internalNodes>
      <leafValues>
        4.1768011450767517e-01 -1.7818118631839752e-01</leafValues></_>
    <_>
      <internalNodes>
        0 -1 5409 4.5730569399893284e-03</internalNodes>
      <leafValues>
        -2.0150925219058990e-01 3.9356622099876404e-01</leafValues></_>
    <_>
      <internalNodes>
        0 -1 18060 -4.4426089152693748e-04</internalNodes>
      <leafValues>
        2.7605640888214111e-01 -2.6740279793739319e-01</leafValues></_>
    <_>
      <internalNodes>
        0 -1 4341 8.9949117973446846e-03</internalNodes>
      <leafValues>
        -8.3278119564056396e-02 8.1431853771209717e-01</leafValues></_>
    <_>
      <internalNodes>
        0 -1 17542 1.8585990183055401e-03</internalNodes>
      <leafValues>
        -2.2768814861774445e-01 3.0468723177909851e-01</leafValues></_>
    <_>
      <internalNodes>
        0 -1 264631 -1.3613079208880663e-03</internalNodes>
      <leafValues>
        -3.3367118239402771e-01 1.9858674705028534e-01</leafValues></_>
    <_>
      <internalNodes>
        0 -1 269430 9.7688334062695503e-04</internalNodes>
      <leafValues>
        1.4284004271030426e-01 -4.7989058494567871e-01</leafValues></_>
    <_>
      <internalNodes>
        0 -1 32262 -1.1527175083756447e-02</internalNodes>
      <leafValues>
        5.8724069595336914e-01 -1.1390242725610733e-01</leafValues></_>
    <_>
      <internalNodes>
        0 -1 154936 -1.6250346601009369e-01</internalNodes>
      <leafValues>
        1.0728346556425095e-01 -6.2911462783813477e-01</leafValues></_>
    <_>
      <internalNodes>
        0 -1 10 -6.0054904315620661e-04</internalNodes>
      <leafValues>
        2.7433669567108154e-01 -2.3267327249050140e-01</leafValues></_>
    <_>
      <internalNodes>
        0 -1 83883 -2.0873667672276497e-03</internalNodes>
      <leafValues>
        -9.9077612161636353e-02 6.6598111391067505e-01</leafValues></_>
    <_>
      <internalNodes>
        0 -1 97500 4.0219165384769440e-04</internalNodes>
      <leafValues>
        1.5869589149951935e-01 -4.7518351674079895e-01</leafValues></_>
    <_>
      <internalNodes>
        0 -1 140138 3.6179877817630768e-02</internalNodes>
      <leafValues>
        7.9786509275436401e-02 -7.7728849649429321e-01</leafValues></_>
    <_>
      <internalNodes>
        0 -1 283755 1.4801741344854236e-03</internalNodes>
      <leafValues>
        -1.8595401942729950e-01 3.5340496897697449e-01</leafValues></_>
    <_>
      <internalNodes>
        0 -1 278512 -1.9449615851044655e-02</internalNodes>
      <leafValues>
        3.0942621827125549e-01 -2.0650725066661835e-01</leafValues></_>
    <_>
      <internalNodes>
        0 -1 165377 -1.4326803386211395e-02</internalNodes>
      <leafValues>
        -7.2076517343521118e-01 8.0008186399936676e-02</leafValues></_>
    <_>
      <internalNodes>
        0 -1 287532 -9.1172859538346529e-04</internalNodes>
      <leafValues>
        4.2617478966712952e-01 -1.5067534148693085e-01</leafValues></_>
    <_>
      <internalNodes>
        0 -1 174909 5.0747087225317955e-03</internalNodes>
      <leafValues>
        -1.3998223841190338e-01 3.8499575853347778e-01</leafValues></_>
    <_>
      <internalNodes>
        0 -1 216418 7.1516088210046291e-03</internalNodes>
      <leafValues>
        -9.5063917338848114e-02 6.2668085098266602e-01</leafValues></_>
    <_>
      <internalNodes>
        0 -1 264669 -9.3081947416067123e-03</internalNodes>
      <leafValues>
        -2.1934016048908234e-01 2.7763837575912476e-01</leafValues></_>
    <_>
      <internalNodes>
        0 -1 1557 -2.3050833493471146e-02</internalNodes>
      <leafValues>
        5.3215473890304565e-01 -1.3252034783363342e-01</leafValues></_></weakClassifiers></stage10>
</opencv_storage>
