<?xml version="1.0"?>
<opencv_storage>
<stage3>
  <maxWeakCount>14</maxWeakCount>
  <stageThreshold>-1.1192675828933716e+00</stageThreshold>
  <weakClassifiers>
    <_>
      <internalNodes>
        0 -1 82629 -6.3876844942569733e-03</internalNodes>
      <leafValues>
        7.2764229774475098e-01 -4.8556432127952576e-02</leafValues></_>
    <_>
      <internalNodes>
        0 -1 48986 -7.9898044466972351e-02</internalNodes>
      <leafValues>
        4.5157110691070557e-01 -2.9530894756317139e-01</leafValues></_>
    <_>
      <internalNodes>
        0 -1 286813 -4.9738865345716476e-03</internalNodes>
      <leafValues>
        4.3064069747924805e-01 -2.5890523195266724e-01</leafValues></_>
    <_>
      <internalNodes>
        0 -1 171177 -7.7517963945865631e-03</internalNodes>
      <leafValues>
        -6.6714489459991455e-01 1.3437506556510925e-01</leafValues></_>
    <_>
      <internalNodes>
        0 -1 158918 1.5266342088580132e-02</internalNodes>
      <leafValues>
        1.7502319812774658e-01 -6.5649032592773438e-01</leafValues></_>
    <_>
      <internalNodes>
        0 -1 16234 3.2507061958312988e-02</internalNodes>
      <leafValues>
        -2.1270437538623810e-01 4.8924595117568970e-01</leafValues></_>
    <_>
      <internalNodes>
        0 -1 274036 1.0226938684354536e-05</internalNodes>
      <leafValues>
        -3.1573230028152466e-01 3.2707881927490234e-01</leafValues></_>
    <_>
      <internalNodes>
        0 -1 165117 8.6686927825212479e-03</internalNodes>
      <leafValues>
        -1.1507045477628708e-01 6.4829307794570923e-01</leafValues></_>
    <_>
      <internalNodes>
        0 -1 1552 -1.1306402273476124e-02</internalNodes>
      <leafValues>
        5.0539612770080566e-01 -2.0759354531764984e-01</leafValues></_>
    <_>
      <internalNodes>
        0 -1 111808 1.1378182534826919e-05</internalNodes>
      <leafValues>
        -3.0275619029998779e-01 3.4733608365058899e-01</leafValues></_>
    <_>
      <internalNodes>
        0 -1 272599 -3.6169087979942560e-03</internalNodes>
      <leafValues>
        3.2668605446815491e-01 -2.9484337568283081e-01</leafValues></_>
    <_>
      <internalNodes>
        0 -1 253467 -2.5659780949354172e-03</internalNodes>
      <leafValues>
        -2.3117239773273468e-01 3.9498466253280640e-01</leafValues></_>
    <_>
      <internalNodes>
        0 -1 5442 5.4017659276723862e-03</internalNodes>
      <leafValues>
        -2.5237870216369629e-01 4.0543800592422485e-01</leafValues></_>
    <_>
      <internalNodes>
        0 -1 186036 -6.8311591167002916e-04</internalNodes>
      <leafValues>
        3.4299263358116150e-01 -2.8665253520011902e-01</leafValues></_></weakClassifiers></stage3>
</opencv_storage>
