<?xml version="1.0"?>
<opencv_storage>
<stage12>
  <maxWeakCount>24</maxWeakCount>
  <stageThreshold>-6.5668988227844238e-01</stageThreshold>
  <weakClassifiers>
    <_>
      <internalNodes>
        0 -1 221180 1.5604132786393166e-02</internalNodes>
      <leafValues>
        3.7854671478271484e-01 -8.5454547405242920e-01</leafValues></_>
    <_>
      <internalNodes>
        0 -1 17767 1.0918509215116501e-02</internalNodes>
      <leafValues>
        -1.3562659919261932e-01 3.9285999536514282e-01</leafValues></_>
    <_>
      <internalNodes>
        0 -1 1457 8.6898842710070312e-05</internalNodes>
      <leafValues>
        -2.3408454656600952e-01 2.3101972043514252e-01</leafValues></_>
    <_>
      <internalNodes>
        0 -1 286786 -2.5010420940816402e-03</internalNodes>
      <leafValues>
        2.5693571567535400e-01 -2.3031087219715118e-01</leafValues></_>
    <_>
      <internalNodes>
        0 -1 206127 -6.0605036560446024e-04</internalNodes>
      <leafValues>
        3.6254021525382996e-01 -2.0121482014656067e-01</leafValues></_>
    <_>
      <internalNodes>
        0 -1 270396 -4.6866584569215775e-02</internalNodes>
      <leafValues>
        3.3617094159126282e-01 -2.1527937054634094e-01</leafValues></_>
    <_>
      <internalNodes>
        0 -1 16130 -3.2013887539505959e-03</internalNodes>
      <leafValues>
        -2.1830196678638458e-01 3.0318018794059753e-01</leafValues></_>
    <_>
      <internalNodes>
        0 -1 3537 -1.7771488055586815e-02</internalNodes>
      <leafValues>
        7.9011714458465576e-01 -7.4289813637733459e-02</leafValues></_>
    <_>
      <internalNodes>
        0 -1 214801 -1.9797999411821365e-02</internalNodes>
      <leafValues>
        4.5211553573608398e-01 -9.5921792089939117e-02</leafValues></_>
    <_>
      <internalNodes>
        0 -1 13783 -7.3905147612094879e-02</internalNodes>
      <leafValues>
        2.6343214511871338e-01 -2.2752150893211365e-01</leafValues></_>
    <_>
      <internalNodes>
        0 -1 190351 -2.7927482733502984e-04</internalNodes>
      <leafValues>
        3.5591390728950500e-01 -1.6746212542057037e-01</leafValues></_>
    <_>
      <internalNodes>
        0 -1 285020 -1.3762580230832100e-02</internalNodes>
      <leafValues>
        4.5786592364311218e-01 -1.0884853452444077e-01</leafValues></_>
    <_>
      <internalNodes>
        0 -1 32219 9.4613293185830116e-05</internalNodes>
      <leafValues>
        -1.9813391566276550e-01 2.7327942848205566e-01</leafValues></_>
    <_>
      <internalNodes>
        0 -1 287533 9.1432862973306328e-05</internalNodes>
      <leafValues>
        -2.7349439263343811e-01 2.0041194558143616e-01</leafValues></_>
    <_>
      <internalNodes>
        0 -1 151152 2.4854461662471294e-04</internalNodes>
      <leafValues>
        1.3832189142704010e-01 -4.0041309595108032e-01</leafValues></_>
    <_>
      <internalNodes>
        0 -1 232458 2.1399606019258499e-02</internalNodes>
      <leafValues>
        6.5596967935562134e-02 -7.4633097648620605e-01</leafValues></_>
    <_>
      <internalNodes>
        0 -1 82816 7.4975600000470877e-04</internalNodes>
      <leafValues>
        -2.5191447138786316e-01 2.1216714382171631e-01</leafValues></_>
    <_>
      <internalNodes>
        0 -1 239852 -1.8842192366719246e-04</internalNodes>
      <leafValues>
        3.0026489496231079e-01 -1.8768791854381561e-01</leafValues></_>
    <_>
      <internalNodes>
        0 -1 239838 -8.7389122927561402e-04</internalNodes>
      <leafValues>
        -9.7589276731014252e-02 6.2187850475311279e-01</leafValues></_>
    <_>
      <internalNodes>
        0 -1 82548 4.8681657062843442e-05</internalNodes>
      <leafValues>
        -2.1712704002857208e-01 2.8218623995780945e-01</leafValues></_>
    <_>
      <internalNodes>
        0 -1 11645 -1.0538285598158836e-02</internalNodes>
      <leafValues>
        5.9893035888671875e-01 -8.9129932224750519e-02</leafValues></_>
    <_>
      <internalNodes>
        0 -1 196321 -2.0806486718356609e-03</internalNodes>
      <leafValues>
        3.3770486712455750e-01 -1.6207036375999451e-01</leafValues></_>
    <_>
      <internalNodes>
        0 -1 233015 4.5099589042365551e-03</internalNodes>
      <leafValues>
        -9.3371406197547913e-02 6.1125373840332031e-01</leafValues></_>
    <_>
      <internalNodes>
        0 -1 277934 -3.0835187062621117e-03</internalNodes>
      <leafValues>
        4.1007593274116516e-01 -1.2451355904340744e-01</leafValues></_></weakClassifiers></stage12>
</opencv_storage>
