<?xml version="1.0"?>
<opencv_storage>
<stage16>
  <maxWeakCount>29</maxWeakCount>
  <stageThreshold>-6.3708305358886719e-01</stageThreshold>
  <weakClassifiers>
    <_>
      <internalNodes>
        0 -1 17192 1.3254203367978334e-03</internalNodes>
      <leafValues>
        -9.2592593282461166e-03 4.7191011905670166e-01</leafValues></_>
    <_>
      <internalNodes>
        0 -1 97598 -8.0734327435493469e-02</internalNodes>
      <leafValues>
        -8.9966529607772827e-01 7.9284295439720154e-02</leafValues></_>
    <_>
      <internalNodes>
        0 -1 82621 -6.4440737478435040e-03</internalNodes>
      <leafValues>
        2.2410649061203003e-01 -2.0762473344802856e-01</leafValues></_>
    <_>
      <internalNodes>
        0 -1 192183 -1.1381084914319217e-04</internalNodes>
      <leafValues>
        1.8400293588638306e-01 -2.1828788518905640e-01</leafValues></_>
    <_>
      <internalNodes>
        0 -1 16885 -4.6276429202407598e-04</internalNodes>
      <leafValues>
        4.1984658688306808e-02 -9.1860872507095337e-01</leafValues></_>
    <_>
      <internalNodes>
        0 -1 202072 8.2303639501333237e-03</internalNodes>
      <leafValues>
        6.7736849188804626e-02 -4.9671190977096558e-01</leafValues></_>
    <_>
      <internalNodes>
        0 -1 6 -5.4083022405393422e-05</internalNodes>
      <leafValues>
        -2.7113288640975952e-01 1.4040102064609528e-01</leafValues></_>
    <_>
      <internalNodes>
        0 -1 98685 2.8627002029679716e-04</internalNodes>
      <leafValues>
        1.4083518087863922e-01 -3.0027431249618530e-01</leafValues></_>
    <_>
      <internalNodes>
        0 -1 232185 1.4036032371222973e-04</internalNodes>
      <leafValues>
        -1.8227922916412354e-01 2.8114381432533264e-01</leafValues></_>
    <_>
      <internalNodes>
        0 -1 287396 -1.6270736232399940e-03</internalNodes>
      <leafValues>
        2.2131852805614471e-01 -2.0214872062206268e-01</leafValues></_>
    <_>
      <internalNodes>
        0 -1 7766 -1.3028704561293125e-02</internalNodes>
      <leafValues>
        5.3622192144393921e-01 -1.0417727380990982e-01</leafValues></_>
    <_>
      <internalNodes>
        0 -1 6663 -8.9255291968584061e-03</internalNodes>
      <leafValues>
        3.8529181480407715e-01 -1.1561492085456848e-01</leafValues></_>
    <_>
      <internalNodes>
        0 -1 121688 -3.1027995049953461e-02</internalNodes>
      <leafValues>
        -7.4195075035095215e-01 6.7512057721614838e-02</leafValues></_>
    <_>
      <internalNodes>
        0 -1 10 -6.1962357722222805e-04</internalNodes>
      <leafValues>
        2.2488802671432495e-01 -2.0428025722503662e-01</leafValues></_>
    <_>
      <internalNodes>
        0 -1 125441 3.6912909708917141e-03</internalNodes>
      <leafValues>
        -6.9180548191070557e-02 7.0011055469512939e-01</leafValues></_>
    <_>
      <internalNodes>
        0 -1 286965 -1.0831847321242094e-03</internalNodes>
      <leafValues>
        3.8969954848289490e-01 -1.1688278615474701e-01</leafValues></_>
    <_>
      <internalNodes>
        0 -1 38 -1.4583893120288849e-02</internalNodes>
      <leafValues>
        -1.0722246766090393e-01 4.6051898598670959e-01</leafValues></_>
    <_>
      <internalNodes>
        0 -1 164814 -6.8294033408164978e-03</internalNodes>
      <leafValues>
        3.7197524309158325e-01 -1.2601323425769806e-01</leafValues></_>
    <_>
      <internalNodes>
        0 -1 260241 -6.8055301904678345e-02</internalNodes>
      <leafValues>
        7.7910475432872772e-02 -6.1384373903274536e-01</leafValues></_>
    <_>
      <internalNodes>
        0 -1 40864 -3.3617885783314705e-03</internalNodes>
      <leafValues>
        -1.6206580400466919e-01 2.8523010015487671e-01</leafValues></_>
    <_>
      <internalNodes>
        0 -1 38693 -1.3160726055502892e-02</internalNodes>
      <leafValues>
        5.8170683681964874e-02 -7.6569151878356934e-01</leafValues></_>
    <_>
      <internalNodes>
        0 -1 200777 -1.0373152792453766e-02</internalNodes>
      <leafValues>
        -6.2024664878845215e-01 6.1623863875865936e-02</leafValues></_>
    <_>
      <internalNodes>
        0 -1 16544 1.3730127830058336e-04</internalNodes>
      <leafValues>
        -1.7796197533607483e-01 2.4080199003219604e-01</leafValues></_>
    <_>
      <internalNodes>
        0 -1 97400 5.5854499805718660e-04</internalNodes>
      <leafValues>
        1.5437345206737518e-01 -3.3675390481948853e-01</leafValues></_>
    <_>
      <internalNodes>
        0 -1 287770 1.9264459842815995e-04</internalNodes>
      <leafValues>
        -5.6710846722126007e-02 8.6204171180725098e-01</leafValues></_>
    <_>
      <internalNodes>
        0 -1 1466 -7.2255439590662718e-04</internalNodes>
      <leafValues>
        2.4940395355224609e-01 -1.8327872455120087e-01</leafValues></_>
    <_>
      <internalNodes>
        0 -1 52674 -1.7987218452617526e-03</internalNodes>
      <leafValues>
        -1.0126520693302155e-01 5.3483182191848755e-01</leafValues></_>
    <_>
      <internalNodes>
        0 -1 72 2.1314225159585476e-03</internalNodes>
      <leafValues>
        -2.2511316835880280e-01 2.1356992423534393e-01</leafValues></_>
    <_>
      <internalNodes>
        0 -1 286618 2.3210508516058326e-05</internalNodes>
      <leafValues>
        -2.5229144096374512e-01 1.9309258460998535e-01</leafValues></_></weakClassifiers></stage16>
</opencv_storage>
