<?xml version="1.0"?>
<opencv_storage>
<stage6>
  <maxWeakCount>12</maxWeakCount>
  <stageThreshold>-6.7576617002487183e-01</stageThreshold>
  <weakClassifiers>
    <_>
      <internalNodes>
        0 -1 286786 -3.1353970989584923e-03</internalNodes>
      <leafValues>
        7.2843450307846069e-01 5.0343248993158340e-02</leafValues></_>
    <_>
      <internalNodes>
        0 -1 10732 8.2327128620818257e-04</internalNodes>
      <leafValues>
        -1.3510306179523468e-01 7.3860478401184082e-01</leafValues></_>
    <_>
      <internalNodes>
        0 -1 206127 -5.0231872592121363e-04</internalNodes>
      <leafValues>
        6.5053415298461914e-01 -2.2761201858520508e-01</leafValues></_>
    <_>
      <internalNodes>
        0 -1 51348 -9.2898862203583121e-04</internalNodes>
      <leafValues>
        -1.4462712407112122e-01 8.0766040086746216e-01</leafValues></_>
    <_>
      <internalNodes>
        0 -1 151244 -2.4228822439908981e-04</internalNodes>
      <leafValues>
        4.5739242434501648e-01 -2.8556638956069946e-01</leafValues></_>
    <_>
      <internalNodes>
        0 -1 287468 2.9342800844460726e-03</internalNodes>
      <leafValues>
        -1.4598362147808075e-01 6.9150286912918091e-01</leafValues></_>
    <_>
      <internalNodes>
        0 -1 36973 1.1882182210683823e-02</internalNodes>
      <leafValues>
        -1.5542392432689667e-01 7.4851167201995850e-01</leafValues></_>
    <_>
      <internalNodes>
        0 -1 3201 1.6861166805028915e-02</internalNodes>
      <leafValues>
        -3.0267331004142761e-01 3.9233046770095825e-01</leafValues></_>
    <_>
      <internalNodes>
        0 -1 219841 -1.3081893324851990e-02</internalNodes>
      <leafValues>
        -7.9609876871109009e-01 1.5582232177257538e-01</leafValues></_>
    <_>
      <internalNodes>
        0 -1 175236 -7.1288286708295345e-03</internalNodes>
      <leafValues>
        8.6160343885421753e-01 -1.4279237389564514e-01</leafValues></_>
    <_>
      <internalNodes>
        0 -1 286907 -1.9182050600647926e-03</internalNodes>
      <leafValues>
        6.0796689987182617e-01 -1.6641826927661896e-01</leafValues></_>
    <_>
      <internalNodes>
        0 -1 242591 1.2435268610715866e-02</internalNodes>
      <leafValues>
        1.5508441627025604e-01 -7.8465104103088379e-01</leafValues></_></weakClassifiers></stage6>
</opencv_storage>
