<?xml version="1.0"?>
<opencv_storage>
<stage4>
  <maxWeakCount>12</maxWeakCount>
  <stageThreshold>-6.2970286607742310e-01</stageThreshold>
  <weakClassifiers>
    <_>
      <internalNodes>
        0 -1 17143 -3.7109558470547199e-03</internalNodes>
      <leafValues>
        -1.5011914074420929e-01 6.8294084072113037e-01</leafValues></_>
    <_>
      <internalNodes>
        0 -1 17622 -7.9066501930356026e-03</internalNodes>
      <leafValues>
        4.9321526288986206e-01 -2.4086549878120422e-01</leafValues></_>
    <_>
      <internalNodes>
        0 -1 287529 -6.6070426255464554e-03</internalNodes>
      <leafValues>
        -2.5659668445587158e-01 4.5233753323554993e-01</leafValues></_>
    <_>
      <internalNodes>
        0 -1 170003 1.0130163282155991e-02</internalNodes>
      <leafValues>
        1.1743246018886566e-01 -8.1072646379470825e-01</leafValues></_>
    <_>
      <internalNodes>
        0 -1 158266 -1.3187317177653313e-02</internalNodes>
      <leafValues>
        -7.0364570617675781e-01 2.1958228945732117e-01</leafValues></_>
    <_>
      <internalNodes>
        0 -1 254658 -8.1982966512441635e-03</internalNodes>
      <leafValues>
        8.6664575338363647e-01 -1.5533463656902313e-01</leafValues></_>
    <_>
      <internalNodes>
        0 -1 286912 -4.2166067287325859e-03</internalNodes>
      <leafValues>
        6.1648851633071899e-01 -1.8659529089927673e-01</leafValues></_>
    <_>
      <internalNodes>
        0 -1 269472 -3.3674261067062616e-04</internalNodes>
      <leafValues>
        -5.8828288316726685e-01 1.9100667536258698e-01</leafValues></_>
    <_>
      <internalNodes>
        0 -1 253467 -2.5990249123424292e-03</internalNodes>
      <leafValues>
        -2.4128143489360809e-01 4.1939663887023926e-01</leafValues></_>
    <_>
      <internalNodes>
        0 -1 225190 -8.6303073912858963e-03</internalNodes>
      <leafValues>
        7.9760831594467163e-01 -1.3383348286151886e-01</leafValues></_>
    <_>
      <internalNodes>
        0 -1 7928 6.8843811750411987e-02</internalNodes>
      <leafValues>
        -1.6011892259120941e-01 5.2818149328231812e-01</leafValues></_>
    <_>
      <internalNodes>
        0 -1 196960 -1.0409124195575714e-02</internalNodes>
      <leafValues>
        8.1163161993026733e-01 -1.2820294499397278e-01</leafValues></_></weakClassifiers></stage4>
</opencv_storage>
