<?xml version="1.0"?>
<opencv_storage>
<stage8>
  <maxWeakCount>14</maxWeakCount>
  <stageThreshold>-8.7297415733337402e-01</stageThreshold>
  <weakClassifiers>
    <_>
      <internalNodes>
        0 -1 179782 -6.1755035072565079e-02</internalNodes>
      <leafValues>
        5.0751727819442749e-01 -4.6196660399436951e-01</leafValues></_>
    <_>
      <internalNodes>
        0 -1 51348 -1.0695322416722775e-03</internalNodes>
      <leafValues>
        -1.2646268308162689e-01 6.3017499446868896e-01</leafValues></_>
    <_>
      <internalNodes>
        0 -1 151244 -1.2343527487246320e-05</internalNodes>
      <leafValues>
        3.0797871947288513e-01 -3.1502315402030945e-01</leafValues></_>
    <_>
      <internalNodes>
        0 -1 6576 2.1508112549781799e-03</internalNodes>
      <leafValues>
        -1.4532057940959930e-01 7.5644713640213013e-01</leafValues></_>
    <_>
      <internalNodes>
        0 -1 170850 1.5333306975662708e-02</internalNodes>
      <leafValues>
        1.4231888949871063e-01 -8.0361562967300415e-01</leafValues></_>
    <_>
      <internalNodes>
        0 -1 210462 -2.3222573101520538e-02</internalNodes>
      <leafValues>
        -7.7444100379943848e-01 1.3863353431224823e-01</leafValues></_>
    <_>
      <internalNodes>
        0 -1 277324 -2.0252264221198857e-05</internalNodes>
      <leafValues>
        2.7859589457511902e-01 -3.0078274011611938e-01</leafValues></_>
    <_>
      <internalNodes>
        0 -1 286623 -7.3272007284685969e-05</internalNodes>
      <leafValues>
        2.6884904503822327e-01 -3.3162692189216614e-01</leafValues></_>
    <_>
      <internalNodes>
        0 -1 14 1.5292684547603130e-03</internalNodes>
      <leafValues>
        -2.2265693545341492e-01 4.0468543767929077e-01</leafValues></_>
    <_>
      <internalNodes>
        0 -1 253467 -2.2127027623355389e-03</internalNodes>
      <leafValues>
        -1.7076472938060760e-01 4.1858509182929993e-01</leafValues></_>
    <_>
      <internalNodes>
        0 -1 253348 -2.0080663263797760e-02</internalNodes>
      <leafValues>
        4.9960181117057800e-01 -2.1184797585010529e-01</leafValues></_>
    <_>
      <internalNodes>
        0 -1 253636 8.6169294081628323e-04</internalNodes>
      <leafValues>
        -2.8266066312789917e-01 3.3687916398048401e-01</leafValues></_>
    <_>
      <internalNodes>
        0 -1 67136 2.5087412723223679e-05</internalNodes>
      <leafValues>
        -3.1261667609214783e-01 3.1131151318550110e-01</leafValues></_>
    <_>
      <internalNodes>
        0 -1 287227 -5.6040938943624496e-04</internalNodes>
      <leafValues>
        4.4035330414772034e-01 -2.0366249978542328e-01</leafValues></_></weakClassifiers></stage8>
</opencv_storage>
