<?xml version="1.0"?>
<opencv_storage>
<stage13>
  <maxWeakCount>6</maxWeakCount>
  <stageThreshold>-1.9591047763824463e+00</stageThreshold>
  <weakClassifiers>
    <_>
      <internalNodes>
        0 -1 295898 2.9002062976360321e-02</internalNodes>
      <leafValues>
        -8.7942665815353394e-01 5.9223300218582153e-01</leafValues></_>
    <_>
      <internalNodes>
        0 -1 475026 2.4512850213795900e-03</internalNodes>
      <leafValues>
        -6.6216069459915161e-01 6.4083719253540039e-01</leafValues></_>
    <_>
      <internalNodes>
        0 -1 508444 5.5014220997691154e-03</internalNodes>
      <leafValues>
        -7.2012794017791748e-01 3.6047768592834473e-01</leafValues></_>
    <_>
      <internalNodes>
        0 -1 461028 -2.9064599424600601e-02</internalNodes>
      <leafValues>
        5.7473313808441162e-01 -4.3597277998924255e-01</leafValues></_>
    <_>
      <internalNodes>
        0 -1 107151 1.8808767199516296e-02</internalNodes>
      <leafValues>
        -5.3676450252532959e-01 4.7612708806991577e-01</leafValues></_>
    <_>
      <internalNodes>
        0 -1 490264 -7.2336831362918019e-04</internalNodes>
      <leafValues>
        -9.4809448719024658e-01 2.6464185118675232e-01</leafValues></_></weakClassifiers></stage13>
</opencv_storage>
