<?xml version="1.0"?>
<opencv_storage>
<stage8>
  <maxWeakCount>7</maxWeakCount>
  <stageThreshold>-2.4738039970397949e+00</stageThreshold>
  <weakClassifiers>
    <_>
      <internalNodes>
        0 -1 258017 2.7942771557718515e-03</internalNodes>
      <leafValues>
        -9.0926933288574219e-01 3.2602739334106445e-01</leafValues></_>
    <_>
      <internalNodes>
        0 -1 415978 2.8547912836074829e-02</internalNodes>
      <leafValues>
        -7.8109860420227051e-01 4.3092435598373413e-01</leafValues></_>
    <_>
      <internalNodes>
        0 -1 18833 -1.3088620267808437e-02</internalNodes>
      <leafValues>
        3.4482067823410034e-01 -7.0599347352981567e-01</leafValues></_>
    <_>
      <internalNodes>
        0 -1 339150 -1.0758222779259086e-03</internalNodes>
      <leafValues>
        6.6854572296142578e-01 -3.6927300691604614e-01</leafValues></_>
    <_>
      <internalNodes>
        0 -1 503474 -8.6571130668744445e-04</internalNodes>
      <leafValues>
        4.7187730669975281e-01 -4.9553358554840088e-01</leafValues></_>
    <_>
      <internalNodes>
        0 -1 509849 7.2973165661096573e-03</internalNodes>
      <leafValues>
        -4.3239986896514893e-01 4.6711459755897522e-01</leafValues></_>
    <_>
      <internalNodes>
        0 -1 339308 -4.7036200761795044e-02</internalNodes>
      <leafValues>
        -9.3712174892425537e-01 2.5235304236412048e-01</leafValues></_></weakClassifiers></stage8>
</opencv_storage>
