<?xml version="1.0"?>
<opencv_storage>
<stage11>
  <maxWeakCount>8</maxWeakCount>
  <stageThreshold>-2.2719993591308594e+00</stageThreshold>
  <weakClassifiers>
    <_>
      <internalNodes>
        0 -1 101294 1.5275336802005768e-02</internalNodes>
      <leafValues>
        -8.8512080907821655e-01 5.4310345649719238e-01</leafValues></_>
    <_>
      <internalNodes>
        0 -1 285620 3.2962072640657425e-02</internalNodes>
      <leafValues>
        -8.1141018867492676e-01 2.3979622125625610e-01</leafValues></_>
    <_>
      <internalNodes>
        0 -1 69163 1.5877136960625648e-02</internalNodes>
      <leafValues>
        -7.8264766931533813e-01 2.7571317553520203e-01</leafValues></_>
    <_>
      <internalNodes>
        0 -1 482700 3.7289818283170462e-04</internalNodes>
      <leafValues>
        -4.0306183695793152e-01 5.2911627292633057e-01</leafValues></_>
    <_>
      <internalNodes>
        0 -1 384239 -7.3761207750067115e-04</internalNodes>
      <leafValues>
        3.8319692015647888e-01 -4.8173508048057556e-01</leafValues></_>
    <_>
      <internalNodes>
        0 -1 6351 1.0058252513408661e-01</internalNodes>
      <leafValues>
        -3.5953217744827271e-01 5.1237177848815918e-01</leafValues></_>
    <_>
      <internalNodes>
        0 -1 335186 -1.6494445502758026e-02</internalNodes>
      <leafValues>
        -9.1278928518295288e-01 2.3705133795738220e-01</leafValues></_>
    <_>
      <internalNodes>
        0 -1 99940 -6.5894052386283875e-04</internalNodes>
      <leafValues>
        3.4255307912826538e-01 -5.3243190050125122e-01</leafValues></_></weakClassifiers></stage11>
</opencv_storage>
