<?xml version="1.0"?>
<opencv_storage>
<stage15>
  <maxWeakCount>7</maxWeakCount>
  <stageThreshold>-2.4521577358245850e+00</stageThreshold>
  <weakClassifiers>
    <_>
      <internalNodes>
        0 -1 323353 -1.4824220910668373e-02</internalNodes>
      <leafValues>
        2.1590909361839294e-01 -8.9734667539596558e-01</leafValues></_>
    <_>
      <internalNodes>
        0 -1 304869 8.3779444685205817e-04</internalNodes>
      <leafValues>
        -7.7293199300765991e-01 2.9468455910682678e-01</leafValues></_>
    <_>
      <internalNodes>
        0 -1 236767 -1.3079568743705750e-01</internalNodes>
      <leafValues>
        3.2586780190467834e-01 -7.4428600072860718e-01</leafValues></_>
    <_>
      <internalNodes>
        0 -1 402475 1.6351643716916442e-03</internalNodes>
      <leafValues>
        -3.6896765232086182e-01 6.6334998607635498e-01</leafValues></_>
    <_>
      <internalNodes>
        0 -1 2015 -1.3564026448875666e-03</internalNodes>
      <leafValues>
        4.5525872707366943e-01 -5.2648425102233887e-01</leafValues></_>
    <_>
      <internalNodes>
        0 -1 393162 -1.0122220963239670e-02</internalNodes>
      <leafValues>
        5.1595079898834229e-01 -3.8315403461456299e-01</leafValues></_>
    <_>
      <internalNodes>
        0 -1 2257 -8.0785609316080809e-04</internalNodes>
      <leafValues>
        -8.0403769016265869e-01 2.5926989316940308e-01</leafValues></_></weakClassifiers></stage15>
</opencv_storage>
