<?xml version="1.0"?>
<opencv_storage>
<stage5>
  <maxWeakCount>6</maxWeakCount>
  <stageThreshold>-2.4622921943664551e+00</stageThreshold>
  <weakClassifiers>
    <_>
      <internalNodes>
        0 -1 293575 -4.6251911669969559e-02</internalNodes>
      <leafValues>
        7.0802921056747437e-01 -9.0761333703994751e-01</leafValues></_>
    <_>
      <internalNodes>
        0 -1 415990 2.3397125303745270e-02</internalNodes>
      <leafValues>
        -7.6706820726394653e-01 6.9763571023941040e-01</leafValues></_>
    <_>
      <internalNodes>
        0 -1 14465 -3.4440101590007544e-03</internalNodes>
      <leafValues>
        4.0059113502502441e-01 -6.7035126686096191e-01</leafValues></_>
    <_>
      <internalNodes>
        0 -1 484261 -3.0826110742054880e-04</internalNodes>
      <leafValues>
        -9.1150784492492676e-01 2.4576923251152039e-01</leafValues></_>
    <_>
      <internalNodes>
        0 -1 503474 -6.8979943171143532e-04</internalNodes>
      <leafValues>
        4.7009798884391785e-01 -5.7542288303375244e-01</leafValues></_>
    <_>
      <internalNodes>
        0 -1 394324 -2.5606603594496846e-04</internalNodes>
      <leafValues>
        -8.5854816436767578e-01 2.6134514808654785e-01</leafValues></_></weakClassifiers></stage5>
</opencv_storage>
