<?xml version="1.0"?>
<opencv_storage>
<stage16>
  <maxWeakCount>8</maxWeakCount>
  <stageThreshold>-2.4086167812347412e+00</stageThreshold>
  <weakClassifiers>
    <_>
      <internalNodes>
        0 -1 504125 -2.0097054541110992e-02</internalNodes>
      <leafValues>
        7.6100629568099976e-01 -8.7059068679809570e-01</leafValues></_>
    <_>
      <internalNodes>
        0 -1 339740 6.6700717434287071e-03</internalNodes>
      <leafValues>
        -6.4199119806289673e-01 6.1476463079452515e-01</leafValues></_>
    <_>
      <internalNodes>
        0 -1 266584 8.3318166434764862e-03</internalNodes>
      <leafValues>
        -7.6383453607559204e-01 3.3107063174247742e-01</leafValues></_>
    <_>
      <internalNodes>
        0 -1 490949 4.1492087766528130e-03</internalNodes>
      <leafValues>
        -5.3461873531341553e-01 3.9439174532890320e-01</leafValues></_>
    <_>
      <internalNodes>
        0 -1 483158 1.1560099199414253e-02</internalNodes>
      <leafValues>
        -6.8808615207672119e-01 3.0766528844833374e-01</leafValues></_>
    <_>
      <internalNodes>
        0 -1 298876 3.6563603207468987e-03</internalNodes>
      <leafValues>
        2.6307004690170288e-01 -8.9257889986038208e-01</leafValues></_>
    <_>
      <internalNodes>
        0 -1 67205 -2.1140236407518387e-02</internalNodes>
      <leafValues>
        2.6321491599082947e-01 -5.8160239458084106e-01</leafValues></_>
    <_>
      <internalNodes>
        0 -1 273983 -1.2528836959972978e-03</internalNodes>
      <leafValues>
        5.1010495424270630e-01 -3.6479103565216064e-01</leafValues></_></weakClassifiers></stage16>
</opencv_storage>
