<?xml version="1.0"?>
<opencv_storage>
<stage14>
  <maxWeakCount>6</maxWeakCount>
  <stageThreshold>-1.9858673810958862e+00</stageThreshold>
  <weakClassifiers>
    <_>
      <internalNodes>
        0 -1 273583 1.0221766307950020e-02</internalNodes>
      <leafValues>
        -8.9319944381713867e-01 5.6302523612976074e-01</leafValues></_>
    <_>
      <internalNodes>
        0 -1 562770 -1.4357226900756359e-03</internalNodes>
      <leafValues>
        1.4982965588569641e-01 -7.7703601121902466e-01</leafValues></_>
    <_>
      <internalNodes>
        0 -1 719551 8.6619537323713303e-03</internalNodes>
      <leafValues>
        -6.9777220487594604e-01 2.8774276375770569e-01</leafValues></_>
    <_>
      <internalNodes>
        0 -1 92249 -9.2418849468231201e-02</internalNodes>
      <leafValues>
        3.6857342720031738e-01 -6.1101657152175903e-01</leafValues></_>
    <_>
      <internalNodes>
        0 -1 602874 1.0041445493698120e-02</internalNodes>
      <leafValues>
        -2.2564639151096344e-01 8.6053162813186646e-01</leafValues></_>
    <_>
      <internalNodes>
        0 -1 28636 -6.6471419995650649e-04</internalNodes>
      <leafValues>
        -1. 2.3921330273151398e-01</leafValues></_></weakClassifiers></stage14>
</opencv_storage>
