<?xml version="1.0"?>
<opencv_storage>
<stage6>
  <maxWeakCount>5</maxWeakCount>
  <stageThreshold>-1.9461114406585693e+00</stageThreshold>
  <weakClassifiers>
    <_>
      <internalNodes>
        0 -1 276170 -4.4761419296264648e-02</internalNodes>
      <leafValues>
        5.0318473577499390e-01 -9.1453784704208374e-01</leafValues></_>
    <_>
      <internalNodes>
        0 -1 338143 -1.2065181508660316e-02</internalNodes>
      <leafValues>
        6.4025032520294189e-01 -6.8933022022247314e-01</leafValues></_>
    <_>
      <internalNodes>
        0 -1 10807 -5.5838166736066341e-03</internalNodes>
      <leafValues>
        3.4920838475227356e-01 -7.3628693819046021e-01</leafValues></_>
    <_>
      <internalNodes>
        0 -1 358119 1.8003901932388544e-03</internalNodes>
      <leafValues>
        2.1815139055252075e-01 -9.2898166179656982e-01</leafValues></_>
    <_>
      <internalNodes>
        0 -1 162480 -1.3528808485716581e-03</internalNodes>
      <leafValues>
        -9.0960317850112915e-01 2.0863044261932373e-01</leafValues></_></weakClassifiers></stage6>
</opencv_storage>
