<?xml version="1.0"?>
<opencv_storage>
<stage4>
  <maxWeakCount>5</maxWeakCount>
  <stageThreshold>-1.6412127017974854e+00</stageThreshold>
  <weakClassifiers>
    <_>
      <internalNodes>
        0 -1 295228 -1.7541863024234772e-02</internalNodes>
      <leafValues>
        9.1666668653488159e-01 -9.1324198246002197e-01</leafValues></_>
    <_>
      <internalNodes>
        0 -1 664924 4.1628710925579071e-02</internalNodes>
      <leafValues>
        -7.7678877115249634e-01 3.9483475685119629e-01</leafValues></_>
    <_>
      <internalNodes>
        0 -1 24239 -3.3733942545950413e-03</internalNodes>
      <leafValues>
        7.2472798824310303e-01 -4.4894036650657654e-01</leafValues></_>
    <_>
      <internalNodes>
        0 -1 352351 -5.1409553270787001e-04</internalNodes>
      <leafValues>
        -9.8069709539413452e-01 2.8116551041603088e-01</leafValues></_>
    <_>
      <internalNodes>
        0 -1 443522 -6.0195539845153689e-04</internalNodes>
      <leafValues>
        -8.7006169557571411e-01 2.1659296751022339e-01</leafValues></_></weakClassifiers></stage4>
</opencv_storage>
