<?xml version="1.0"?>
<opencv_storage>
<stage9>
  <maxWeakCount>7</maxWeakCount>
  <stageThreshold>-1.9602488279342651e+00</stageThreshold>
  <weakClassifiers>
    <_>
      <internalNodes>
        0 -1 488172 -1.3139570131897926e-02</internalNodes>
      <leafValues>
        5.4744523763656616e-01 -9.0427976846694946e-01</leafValues></_>
    <_>
      <internalNodes>
        0 -1 439769 5.8173588477075100e-03</internalNodes>
      <leafValues>
        -7.7440720796585083e-01 3.6379879713058472e-01</leafValues></_>
    <_>
      <internalNodes>
        0 -1 14228 -1.6461587511003017e-03</internalNodes>
      <leafValues>
        2.5902768969535828e-01 -7.3628276586532593e-01</leafValues></_>
    <_>
      <internalNodes>
        0 -1 662367 -5.1025836728513241e-04</internalNodes>
      <leafValues>
        -9.6056342124938965e-01 1.5136808156967163e-01</leafValues></_>
    <_>
      <internalNodes>
        0 -1 651579 3.8446914404630661e-03</internalNodes>
      <leafValues>
        1.8746601045131683e-01 -9.9523842334747314e-01</leafValues></_>
    <_>
      <internalNodes>
        0 -1 596892 -7.6091093942523003e-03</internalNodes>
      <leafValues>
        7.7876543998718262e-01 -3.1916266679763794e-01</leafValues></_>
    <_>
      <internalNodes>
        0 -1 728454 4.8879208043217659e-04</internalNodes>
      <leafValues>
        -4.5926800370216370e-01 4.3504959344863892e-01</leafValues></_></weakClassifiers></stage9>
</opencv_storage>
