<?xml version="1.0"?>
<opencv_storage>
<stage12>
  <maxWeakCount>6</maxWeakCount>
  <stageThreshold>-1.9097307920455933e+00</stageThreshold>
  <weakClassifiers>
    <_>
      <internalNodes>
        0 -1 687188 2.8061101213097572e-02</internalNodes>
      <leafValues>
        -9.0769231319427490e-01 3.4545454382896423e-01</leafValues></_>
    <_>
      <internalNodes>
        0 -1 604076 4.0393285453319550e-02</internalNodes>
      <leafValues>
        -7.7718758583068848e-01 2.2520408034324646e-01</leafValues></_>
    <_>
      <internalNodes>
        0 -1 28730 -2.9263233300298452e-03</internalNodes>
      <leafValues>
        2.7674731612205505e-01 -6.6125261783599854e-01</leafValues></_>
    <_>
      <internalNodes>
        0 -1 77398 -7.2847418487071991e-03</internalNodes>
      <leafValues>
        4.7604224085807800e-01 -4.2331516742706299e-01</leafValues></_>
    <_>
      <internalNodes>
        0 -1 692127 1.1112874199170619e-04</internalNodes>
      <leafValues>
        2.3849278688430786e-01 -8.5922294855117798e-01</leafValues></_>
    <_>
      <internalNodes>
        0 -1 603737 3.5272296518087387e-03</internalNodes>
      <leafValues>
        -2.7813327312469482e-01 7.9166424274444580e-01</leafValues></_></weakClassifiers></stage12>
</opencv_storage>
