<?xml version="1.0"?>
<opencv_storage>
<cascade>
  <stageType>BOOST</stageType>
  <featureType>HAAR</featureType>
  <height>24</height>
  <width>33</width>
  <stageParams>
    <boostType>GAB</boostType>
    <minHitRate>9.9500000476837158e-01</minHitRate>
    <maxFalseAlarm>5.0000000000000000e-01</maxFalseAlarm>
    <weightTrimRate>9.4999999999999996e-01</weightTrimRate>
    <maxDepth>1</maxDepth>
    <maxWeakCount>100</maxWeakCount></stageParams>
  <featureParams>
    <maxCatCount>0</maxCatCount>
    <featSize>1</featSize>
    <mode>BASIC</mode></featureParams>
  <stageNum>13</stageNum>
  <stages>
    <!-- stage 0 -->
    <_>
      <maxWeakCount>3</maxWeakCount>
      <stageThreshold>-1.0902940034866333e+00</stageThreshold>
      <weakClassifiers>
        <_>
          <internalNodes>
            0 -1 49 1.1288586072623730e-02</internalNodes>
          <leafValues>
            -9.8500001430511475e-01 8.5000002384185791e-01</leafValues></_>
        <_>
          <internalNodes>
            0 -1 2 -4.8247113823890686e-02</internalNodes>
          <leafValues>
            7.8286647796630859e-01 -9.6150976419448853e-01</leafValues></_>
        <_>
          <internalNodes>
            0 -1 6 2.0188333466649055e-02</internalNodes>
          <leafValues>
            -8.8800305128097534e-01 8.5621583461761475e-01</leafValues></_></weakClassifiers></_>
    <!-- stage 1 -->
    <_>
      <maxWeakCount>3</maxWeakCount>
      <stageThreshold>-1.4986305236816406e+00</stageThreshold>
      <weakClassifiers>
        <_>
          <internalNodes>
            0 -1 44 -1.7536200582981110e-02</internalNodes>
          <leafValues>
            8.4042555093765259e-01 -9.7316104173660278e-01</leafValues></_>
        <_>
          <internalNodes>
            0 -1 24 -2.1190833300352097e-02</internalNodes>
          <leafValues>
            6.9604080915451050e-01 -9.3432396650314331e-01</leafValues></_>
        <_>
          <internalNodes>
            0 -1 29 -1.9494572654366493e-02</internalNodes>
          <leafValues>
            4.0885451436042786e-01 -9.9851912260055542e-01</leafValues></_></weakClassifiers></_>
    <!-- stage 2 -->
    <_>
      <maxWeakCount>4</maxWeakCount>
      <stageThreshold>-2.1365242004394531e+00</stageThreshold>
      <weakClassifiers>
        <_>
          <internalNodes>
            0 -1 3 8.1224739551544189e-02</internalNodes>
          <leafValues>
            -9.6605092287063599e-01 6.8527919054031372e-01</leafValues></_>
        <_>
          <internalNodes>
            0 -1 15 -1.3397169113159180e-01</internalNodes>
          <leafValues>
            9.7662264108657837e-01 -8.9626753330230713e-01</leafValues></_>
        <_>
          <internalNodes>
            0 -1 36 4.6144616790115833e-03</internalNodes>
          <leafValues>
            -8.2035034894943237e-01 7.6972132921218872e-01</leafValues></_>
        <_>
          <internalNodes>
            0 -1 11 1.2106543406844139e-02</internalNodes>
          <leafValues>
            -9.7251355648040771e-01 5.4614454507827759e-01</leafValues></_></weakClassifiers></_>
    <!-- stage 3 -->
    <_>
      <maxWeakCount>4</maxWeakCount>
      <stageThreshold>-2.2798712253570557e+00</stageThreshold>
      <weakClassifiers>
        <_>
          <internalNodes>
            0 -1 35 4.8850718885660172e-03</internalNodes>
          <leafValues>
            -9.5181906223297119e-01 8.1927710771560669e-01</leafValues></_>
        <_>
          <internalNodes>
            0 -1 42 -8.8174622505903244e-03</internalNodes>
          <leafValues>
            6.3270413875579834e-01 -9.3941503763198853e-01</leafValues></_>
        <_>
          <internalNodes>
            0 -1 17 -9.9208224564790726e-03</internalNodes>
          <leafValues>
            6.5927934646606445e-01 -8.2476353645324707e-01</leafValues></_>
        <_>
          <internalNodes>
            0 -1 43 3.4394629299640656e-02</internalNodes>
          <leafValues>
            -9.4864624738693237e-01 4.3612632155418396e-01</leafValues></_></weakClassifiers></_>
    <!-- stage 4 -->
    <_>
      <maxWeakCount>5</maxWeakCount>
      <stageThreshold>-2.7813537120819092e+00</stageThreshold>
      <weakClassifiers>
        <_>
          <internalNodes>
            0 -1 27 -7.0607638917863369e-03</internalNodes>
          <leafValues>
            5.9782606363296509e-01 -9.4742065668106079e-01</leafValues></_>
        <_>
          <internalNodes>
            0 -1 25 -2.8031446039676666e-02</internalNodes>
          <leafValues>
            8.1299024820327759e-01 -8.6614602804183960e-01</leafValues></_>
        <_>
          <internalNodes>
            0 -1 51 1.8843188881874084e-02</internalNodes>
          <leafValues>
            -8.5388863086700439e-01 6.9997608661651611e-01</leafValues></_>
        <_>
          <internalNodes>
            0 -1 0 -5.4641831666231155e-03</internalNodes>
          <leafValues>
            5.6973975896835327e-01 -7.7028489112854004e-01</leafValues></_>
        <_>
          <internalNodes>
            0 -1 23 -4.0279366075992584e-03</internalNodes>
          <leafValues>
            7.3244565725326538e-01 -6.8363833427429199e-01</leafValues></_></weakClassifiers></_>
    <!-- stage 5 -->
    <_>
      <maxWeakCount>4</maxWeakCount>
      <stageThreshold>-2.3032271862030029e+00</stageThreshold>
      <weakClassifiers>
        <_>
          <internalNodes>
            0 -1 48 5.4738046601414680e-03</internalNodes>
          <leafValues>
            -9.4648164510726929e-01 6.0439562797546387e-01</leafValues></_>
        <_>
          <internalNodes>
            0 -1 18 9.3075130134820938e-03</internalNodes>
          <leafValues>
            -9.2869693040847778e-01 5.6386595964431763e-01</leafValues></_>
        <_>
          <internalNodes>
            0 -1 1 4.7870688140392303e-02</internalNodes>
          <leafValues>
            -8.5086017847061157e-01 5.9447145462036133e-01</leafValues></_>
        <_>
          <internalNodes>
            0 -1 9 4.2436420917510986e-03</internalNodes>
          <leafValues>
            -9.5702463388442993e-01 4.2281168699264526e-01</leafValues></_></weakClassifiers></_>
    <!-- stage 6 -->
    <_>
      <maxWeakCount>4</maxWeakCount>
      <stageThreshold>-2.3467166423797607e+00</stageThreshold>
      <weakClassifiers>
        <_>
          <internalNodes>
            0 -1 37 -4.5537635684013367e-02</internalNodes>
          <leafValues>
            9.8260867595672607e-01 -9.1750597953796387e-01</leafValues></_>
        <_>
          <internalNodes>
            0 -1 33 5.8557614684104919e-03</internalNodes>
          <leafValues>
            -9.3093091249465942e-01 7.1214669942855835e-01</leafValues></_>
        <_>
          <internalNodes>
            0 -1 14 2.3917619138956070e-02</internalNodes>
          <leafValues>
            -8.7639230489730835e-01 5.3464746475219727e-01</leafValues></_>
        <_>
          <internalNodes>
            0 -1 8 -3.0528625473380089e-02</internalNodes>
          <leafValues>
            3.7811243534088135e-01 -9.5904594659805298e-01</leafValues></_></weakClassifiers></_>
    <!-- stage 7 -->
    <_>
      <maxWeakCount>4</maxWeakCount>
      <stageThreshold>-2.2634456157684326e+00</stageThreshold>
      <weakClassifiers>
        <_>
          <internalNodes>
            0 -1 31 -6.3757942989468575e-03</internalNodes>
          <leafValues>
            5.1428574323654175e-01 -9.5879399776458740e-01</leafValues></_>
        <_>
          <internalNodes>
            0 -1 38 -2.6987805962562561e-02</internalNodes>
          <leafValues>
            7.8330260515213013e-01 -8.5614496469497681e-01</leafValues></_>
        <_>
          <internalNodes>
            0 -1 47 2.1058611571788788e-02</internalNodes>
          <leafValues>
            -8.4406030178070068e-01 6.8187588453292847e-01</leafValues></_>
        <_>
          <internalNodes>
            0 -1 12 -3.4421684686094522e-03</internalNodes>
          <leafValues>
            3.9555367827415466e-01 -1.</leafValues></_></weakClassifiers></_>
    <!-- stage 8 -->
    <_>
      <maxWeakCount>4</maxWeakCount>
      <stageThreshold>-2.1861908435821533e+00</stageThreshold>
      <weakClassifiers>
        <_>
          <internalNodes>
            0 -1 5 -2.2193416953086853e-02</internalNodes>
          <leafValues>
            9.0243899822235107e-01 -9.2007702589035034e-01</leafValues></_>
        <_>
          <internalNodes>
            0 -1 39 -2.2178754210472107e-02</internalNodes>
          <leafValues>
            8.1188428401947021e-01 -8.6863523721694946e-01</leafValues></_>
        <_>
          <internalNodes>
            0 -1 34 -7.6238503679633141e-03</internalNodes>
          <leafValues>
            7.4692684412002563e-01 -8.1183439493179321e-01</leafValues></_>
        <_>
          <internalNodes>
            0 -1 10 -2.5199085474014282e-02</internalNodes>
          <leafValues>
            -1. 4.1435587406158447e-01</leafValues></_></weakClassifiers></_>
    <!-- stage 9 -->
    <_>
      <maxWeakCount>4</maxWeakCount>
      <stageThreshold>-2.1412453651428223e+00</stageThreshold>
      <weakClassifiers>
        <_>
          <internalNodes>
            0 -1 22 2.0262815058231354e-02</internalNodes>
          <leafValues>
            -9.1911411285400391e-01 8.8617885112762451e-01</leafValues></_>
        <_>
          <internalNodes>
            0 -1 27 -5.8258143253624439e-03</internalNodes>
          <leafValues>
            6.4242529869079590e-01 -8.9963316917419434e-01</leafValues></_>
        <_>
          <internalNodes>
            0 -1 41 -6.0614054091274738e-03</internalNodes>
          <leafValues>
            7.1762454509735107e-01 -7.4160701036453247e-01</leafValues></_>
        <_>
          <internalNodes>
            0 -1 46 -1.5035832766443491e-03</internalNodes>
          <leafValues>
            4.1910892724990845e-01 -9.3619102239608765e-01</leafValues></_></weakClassifiers></_>
    <!-- stage 10 -->
    <_>
      <maxWeakCount>5</maxWeakCount>
      <stageThreshold>-2.9750931262969971e+00</stageThreshold>
      <weakClassifiers>
        <_>
          <internalNodes>
            0 -1 19 -5.7857863605022430e-02</internalNodes>
          <leafValues>
            8.6153846979141235e-01 -9.2367148399353027e-01</leafValues></_>
        <_>
          <internalNodes>
            0 -1 4 6.5789923071861267e-02</internalNodes>
          <leafValues>
            -9.0968137979507446e-01 5.4332327842712402e-01</leafValues></_>
        <_>
          <internalNodes>
            0 -1 40 -1.6838951036334038e-02</internalNodes>
          <leafValues>
            5.7879251241683960e-01 -8.2681322097778320e-01</leafValues></_>
        <_>
          <internalNodes>
            0 -1 16 -4.9249339848756790e-02</internalNodes>
          <leafValues>
            5.9676450490951538e-01 -7.3614072799682617e-01</leafValues></_>
        <_>
          <internalNodes>
            0 -1 28 1.4570239000022411e-04</internalNodes>
          <leafValues>
            -9.5471954345703125e-01 4.2121356725692749e-01</leafValues></_></weakClassifiers></_>
    <!-- stage 11 -->
    <_>
      <maxWeakCount>5</maxWeakCount>
      <stageThreshold>-2.6969094276428223e+00</stageThreshold>
      <weakClassifiers>
        <_>
          <internalNodes>
            0 -1 13 -1.1945862323045731e-02</internalNodes>
          <leafValues>
            8.1538462638854980e-01 -9.2077296972274780e-01</leafValues></_>
        <_>
          <internalNodes>
            0 -1 21 -3.0774204060435295e-02</internalNodes>
          <leafValues>
            9.0939503908157349e-01 -8.1642240285873413e-01</leafValues></_>
        <_>
          <internalNodes>
            0 -1 32 3.9297351613640785e-03</internalNodes>
          <leafValues>
            -8.2366442680358887e-01 6.7916226387023926e-01</leafValues></_>
        <_>
          <internalNodes>
            0 -1 26 1.2300073169171810e-02</internalNodes>
          <leafValues>
            -7.6877003908157349e-01 5.8455532789230347e-01</leafValues></_>
        <_>
          <internalNodes>
            0 -1 50 2.2796352859586477e-03</internalNodes>
          <leafValues>
            -7.2060501575469971e-01 6.6155195236206055e-01</leafValues></_></weakClassifiers></_>
    <!-- stage 12 -->
    <_>
      <maxWeakCount>5</maxWeakCount>
      <stageThreshold>-2.7164208889007568e+00</stageThreshold>
      <weakClassifiers>
        <_>
          <internalNodes>
            0 -1 20 -6.3351601362228394e-02</internalNodes>
          <leafValues>
            8.3870965242385864e-01 -9.1714835166931152e-01</leafValues></_>
        <_>
          <internalNodes>
            0 -1 7 5.5138446390628815e-02</internalNodes>
          <leafValues>
            -8.9593446254730225e-01 5.2515423297882080e-01</leafValues></_>
        <_>
          <internalNodes>
            0 -1 30 2.9248441569507122e-03</internalNodes>
          <leafValues>
            -7.5204539299011230e-01 6.7876863479614258e-01</leafValues></_>
        <_>
          <internalNodes>
            0 -1 16 -4.7123793512582779e-02</internalNodes>
          <leafValues>
            6.1107069253921509e-01 -6.8273174762725830e-01</leafValues></_>
        <_>
          <internalNodes>
            0 -1 45 -8.3097498863935471e-03</internalNodes>
          <leafValues>
            5.8912521600723267e-01 -7.6236331462860107e-01</leafValues></_></weakClassifiers></_></stages>
  <features>
    <_>
      <rects>
        <_>
          0 6 2 14 -1.</_>
        <_>
          1 6 1 14 2.</_></rects>
      <tilted>0</tilted></_>
    <_>
      <rects>
        <_>
          0 6 8 7 -1.</_>
        <_>
          4 6 4 7 2.</_></rects>
      <tilted>0</tilted></_>
    <_>
      <rects>
        <_>
          0 12 8 12 -1.</_>
        <_>
          0 12 4 6 2.</_>
        <_>
          4 18 4 6 2.</_></rects>
      <tilted>0</tilted></_>
    <_>
      <rects>
        <_>
          1 4 6 14 -1.</_>
        <_>
          4 4 3 14 2.</_></rects>
      <tilted>0</tilted></_>
    <_>
      <rects>
        <_>
          1 6 6 9 -1.</_>
        <_>
          4 6 3 9 2.</_></rects>
      <tilted>0</tilted></_>
    <_>
      <rects>
        <_>
          1 20 14 1 -1.</_>
        <_>
          8 20 7 1 2.</_></rects>
      <tilted>0</tilted></_>
    <_>
      <rects>
        <_>
          1 22 31 2 -1.</_>
        <_>
          1 23 31 1 2.</_></rects>
      <tilted>0</tilted></_>
    <_>
      <rects>
        <_>
          2 3 4 17 -1.</_>
        <_>
          4 3 2 17 2.</_></rects>
      <tilted>0</tilted></_>
    <_>
      <rects>
        <_>
          3 4 4 20 -1.</_>
        <_>
          3 14 4 10 2.</_></rects>
      <tilted>0</tilted></_>
    <_>
      <rects>
        <_>
          3 6 6 4 -1.</_>
        <_>
          3 6 3 2 2.</_>
        <_>
          6 8 3 2 2.</_></rects>
      <tilted>0</tilted></_>
    <_>
      <rects>
        <_>
          3 20 9 1 -1.</_>
        <_>
          6 20 3 1 2.</_></rects>
      <tilted>0</tilted></_>
    <_>
      <rects>
        <_>
          4 4 4 16 -1.</_>
        <_>
          4 4 2 8 2.</_>
        <_>
          6 12 2 8 2.</_></rects>
      <tilted>0</tilted></_>
    <_>
      <rects>
        <_>
          4 10 12 6 -1.</_>
        <_>
          4 10 6 3 2.</_>
        <_>
          10 13 6 3 2.</_></rects>
      <tilted>0</tilted></_>
    <_>
      <rects>
        <_>
          4 20 8 1 -1.</_>
        <_>
          8 20 4 1 2.</_></rects>
      <tilted>0</tilted></_>
    <_>
      <rects>
        <_>
          5 7 23 4 -1.</_>
        <_>
          5 9 23 2 2.</_></rects>
      <tilted>0</tilted></_>
    <_>
      <rects>
        <_>
          6 16 25 6 -1.</_>
        <_>
          6 19 25 3 2.</_></rects>
      <tilted>0</tilted></_>
    <_>
      <rects>
        <_>
          7 17 22 6 -1.</_>
        <_>
          7 20 22 3 2.</_></rects>
      <tilted>0</tilted></_>
    <_>
      <rects>
        <_>
          8 8 3 6 -1.</_>
        <_>
          8 11 3 3 2.</_></rects>
      <tilted>0</tilted></_>
    <_>
      <rects>
        <_>
          8 11 4 3 -1.</_>
        <_>
          10 11 2 3 2.</_></rects>
      <tilted>0</tilted></_>
    <_>
      <rects>
        <_>
          8 16 6 6 -1.</_>
        <_>
          8 19 6 3 2.</_></rects>
      <tilted>0</tilted></_>
    <_>
      <rects>
        <_>
          9 16 6 6 -1.</_>
        <_>
          9 19 6 3 2.</_></rects>
      <tilted>0</tilted></_>
    <_>
      <rects>
        <_>
          9 19 7 4 -1.</_>
        <_>
          9 21 7 2 2.</_></rects>
      <tilted>0</tilted></_>
    <_>
      <rects>
        <_>
          9 20 12 1 -1.</_>
        <_>
          15 20 6 1 2.</_></rects>
      <tilted>0</tilted></_>
    <_>
      <rects>
        <_>
          10 4 2 5 -1.</_>
        <_>
          11 4 1 5 2.</_></rects>
      <tilted>0</tilted></_>
    <_>
      <rects>
        <_>
          11 4 4 12 -1.</_>
        <_>
          11 4 2 6 2.</_>
        <_>
          13 10 2 6 2.</_></rects>
      <tilted>0</tilted></_>
    <_>
      <rects>
        <_>
          11 13 2 10 -1.</_>
        <_>
          11 18 2 5 2.</_></rects>
      <tilted>0</tilted></_>
    <_>
      <rects>
        <_>
          13 8 4 8 -1.</_>
        <_>
          15 8 2 8 2.</_></rects>
      <tilted>0</tilted></_>
    <_>
      <rects>
        <_>
          13 11 2 6 -1.</_>
        <_>
          13 11 1 3 2.</_>
        <_>
          14 14 1 3 2.</_></rects>
      <tilted>0</tilted></_>
    <_>
      <rects>
        <_>
          14 11 2 2 -1.</_>
        <_>
          14 11 1 1 2.</_>
        <_>
          15 12 1 1 2.</_></rects>
      <tilted>0</tilted></_>
    <_>
      <rects>
        <_>
          16 4 16 8 -1.</_>
        <_>
          16 4 8 4 2.</_>
        <_>
          24 8 8 4 2.</_></rects>
      <tilted>0</tilted></_>
    <_>
      <rects>
        <_>
          17 3 2 4 -1.</_>
        <_>
          17 3 1 2 2.</_>
        <_>
          18 5 1 2 2.</_></rects>
      <tilted>0</tilted></_>
    <_>
      <rects>
        <_>
          18 9 2 6 -1.</_>
        <_>
          18 9 1 3 2.</_>
        <_>
          19 12 1 3 2.</_></rects>
      <tilted>0</tilted></_>
    <_>
      <rects>
        <_>
          18 13 2 6 -1.</_>
        <_>
          18 13 1 3 2.</_>
        <_>
          19 16 1 3 2.</_></rects>
      <tilted>0</tilted></_>
    <_>
      <rects>
        <_>
          19 8 2 6 -1.</_>
        <_>
          19 8 1 3 2.</_>
        <_>
          20 11 1 3 2.</_></rects>
      <tilted>0</tilted></_>
    <_>
      <rects>
        <_>
          19 9 2 12 -1.</_>
        <_>
          19 9 1 6 2.</_>
        <_>
          20 15 1 6 2.</_></rects>
      <tilted>0</tilted></_>
    <_>
      <rects>
        <_>
          19 12 2 2 -1.</_>
        <_>
          20 12 1 2 2.</_></rects>
      <tilted>0</tilted></_>
    <_>
      <rects>
        <_>
          20 13 2 4 -1.</_>
        <_>
          21 13 1 4 2.</_></rects>
      <tilted>0</tilted></_>
    <_>
      <rects>
        <_>
          21 18 7 4 -1.</_>
        <_>
          21 20 7 2 2.</_></rects>
      <tilted>0</tilted></_>
    <_>
      <rects>
        <_>
          21 18 8 4 -1.</_>
        <_>
          21 20 8 2 2.</_></rects>
      <tilted>0</tilted></_>
    <_>
      <rects>
        <_>
          21 19 6 4 -1.</_>
        <_>
          21 21 6 2 2.</_></rects>
      <tilted>0</tilted></_>
    <_>
      <rects>
        <_>
          22 12 6 6 -1.</_>
        <_>
          22 12 3 3 2.</_>
        <_>
          25 15 3 3 2.</_></rects>
      <tilted>0</tilted></_>
    <_>
      <rects>
        <_>
          22 15 4 1 -1.</_>
        <_>
          24 15 2 1 2.</_></rects>
      <tilted>0</tilted></_>
    <_>
      <rects>
        <_>
          22 15 4 2 -1.</_>
        <_>
          24 15 2 2 2.</_></rects>
      <tilted>0</tilted></_>
    <_>
      <rects>
        <_>
          23 3 10 20 -1.</_>
        <_>
          28 3 5 20 2.</_></rects>
      <tilted>0</tilted></_>
    <_>
      <rects>
        <_>
          23 12 4 6 -1.</_>
        <_>
          23 12 2 3 2.</_>
        <_>
          25 15 2 3 2.</_></rects>
      <tilted>0</tilted></_>
    <_>
      <rects>
        <_>
          23 15 8 4 -1.</_>
        <_>
          23 15 4 2 2.</_>
        <_>
          27 17 4 2 2.</_></rects>
      <tilted>0</tilted></_>
    <_>
      <rects>
        <_>
          24 2 3 4 -1.</_>
        <_>
          24 4 3 2 2.</_></rects>
      <tilted>0</tilted></_>
    <_>
      <rects>
        <_>
          24 9 4 8 -1.</_>
        <_>
          24 9 2 4 2.</_>
        <_>
          26 13 2 4 2.</_></rects>
      <tilted>0</tilted></_>
    <_>
      <rects>
        <_>
          24 13 2 2 -1.</_>
        <_>
          25 13 1 2 2.</_></rects>
      <tilted>0</tilted></_>
    <_>
      <rects>
        <_>
          24 14 4 2 -1.</_>
        <_>
          26 14 2 2 2.</_></rects>
      <tilted>0</tilted></_>
    <_>
      <rects>
        <_>
          26 21 3 2 -1.</_>
        <_>
          26 22 3 1 2.</_></rects>
      <tilted>0</tilted></_>
    <_>
      <rects>
        <_>
          27 6 2 12 -1.</_>
        <_>
          27 12 2 6 2.</_></rects>
      <tilted>0</tilted></_></features></cascade>
</opencv_storage>
