<?xml version="1.0"?>
<opencv_storage>
<stage4>
  <maxWeakCount>5</maxWeakCount>
  <stageThreshold>-2.7813537120819092e+00</stageThreshold>
  <weakClassifiers>
    <_>
      <internalNodes>
        0 -1 200842 -7.0607638917863369e-03</internalNodes>
      <leafValues>
        5.9782606363296509e-01 -9.4742065668106079e-01</leafValues></_>
    <_>
      <internalNodes>
        0 -1 179089 -2.8031446039676666e-02</internalNodes>
      <leafValues>
        8.1299024820327759e-01 -8.6614602804183960e-01</leafValues></_>
    <_>
      <internalNodes>
        0 -1 297056 1.8843188881874084e-02</internalNodes>
      <leafValues>
        -8.5388863086700439e-01 6.9997608661651611e-01</leafValues></_>
    <_>
      <internalNodes>
        0 -1 7973 -5.4641831666231155e-03</internalNodes>
      <leafValues>
        5.6973975896835327e-01 -7.7028489112854004e-01</leafValues></_>
    <_>
      <internalNodes>
        0 -1 160823 -4.0279366075992584e-03</internalNodes>
      <leafValues>
        7.3244565725326538e-01 -6.8363833427429199e-01</leafValues></_></weakClassifiers></stage4>
</opencv_storage>
